tree
version=v4
num_class=1
num_tree_per_iteration=1
label_index=0
max_feature_idx=67
objective=binary sigmoid:1
feature_names=Column_0 Column_1 Column_2 Column_3 Column_4 Column_5 Column_6 Column_7 Column_8 Column_9 Column_10 Column_11 Column_12 Column_13 Column_14 Column_15 Column_16 Column_17 Column_18 Column_19 Column_20 Column_21 Column_22 Column_23 Column_24 Column_25 Column_26 Column_27 Column_28 Column_29 Column_30 Column_31 Column_32 Column_33 Column_34 Column_35 Column_36 Column_37 Column_38 Column_39 Column_40 Column_41 Column_42 Column_43 Column_44 Column_45 Column_46 Column_47 Column_48 Column_49 Column_50 Column_51 Column_52 Column_53 Column_54 Column_55 Column_56 Column_57 Column_58 Column_59 Column_60 Column_61 Column_62 Column_63 Column_64 Column_65 Column_66 Column_67
feature_infos=[0:1580] [0:1579] [0:1528] [0:4] [0:6] [0:5] [1275.4278944304742:2376.6722513120476] [1274.4109040199269:2386.1976838975206] [1294.478151839709:2435.1574195749072] [1294.478151839709:2444.2502739170686] [-933.24050609995015:991.84441227584239] [1275.4278944304742:2376.6722513120476] [1274.4109040199269:2386.1976838975206] [-884.75627815320786:914.12072290041363] [0.0061017056044227001:0.9948423430288148] [0.0051576569711852998:0.9938982943955772] [-658.68181252711406:21.518115868647783] [-658.68181252711406:21.326936976207207] [-585.11857765222612:601.88075633458016] [0:35.311711843400872] [0:36.522636435580374] [-35.311711843400872:31.173161716657823] [1478.4818841313522:2386.1976838975206] [1478.6730630237928:2386.1976838975206] [15.300000000000001:43.799999999999997] [14.9:44] [-25.899999999999999:21.700000000000003] [3:211] [15:211] [-190:173] [0:1] [0:1] [0:1] [-5149:4900] [0:1] [0:1] [-6:6] [-16:17] [0:1] [0:1] [-1:1] [0:1] [0:1] [-1:1] [0:1] [0:1] [-1:1] none none none [0:0.31111737751437052] [0:0.30919179926899981] [-0.27002290841557292:0.27615225437741509] [0:0.2280701754385964] [0:0.19047619047619041] [-0.16047619047619041:0.1970679837869809] [0.21428571428571419:0.92682926829268297] [0.2857142857142857:0.92682926829268297] [-0.53971059207764061:0.46584356223031648] [0.1333333333333333:0.82608695652173914] [0.125:0.73333333333333328] [-0.43233082706766918:0.44891640866873062] [156.40000000000001:297.84230102327689] [156.40000000000001:294.71855768884433] [-115.37438470974058:122.82234339672829] [0.0106653078512218:0.26181129537055209] [0.0033838080147622:0.26181129537055209] [-0.161811295370552:0.20241389107091329]
tree_sizes=1880 1883 1856 1882 1869 1871 1880 1869 1875 1885 1874 1882 1884 1865 1875 1868 1876 1878 1893 1893 1891 1880 1892 1874 1886 1865 1884 1897 1879 1904 1891 1888 1894 1891 1893 1888 1895 1877 1895 1895 1887 1898 1883 1896 1911 1882 1889 1865 1898 1893 1882 1887 1894 1899 1894 1909 1886 1897 1889 1893 1893 1891 1912 1900 1903 1899 1908 1894 1910 1906 1899 1905 1902 1897 1886 1905 1891 1789 1893 1906 1893 1910 1898 1782 1888 1883 1883 1895 1902 1791 1906 1889 1906 1892 1779 1885 1895 1876 1889 1898 1791 1886 1872 1898 1912 1749 1880 1903 1885 1884 1899 1880 1662 1874 1869 1876 1885 1875 1878 1672 1882 1880 1656 1855 1875 1850 1892 1890 1893 1774 1880 1785 1889 1654 1867 1874 1857 1641 1765 1883 1867 1840 1863 1770 1651 1867 1746 1751 1772 1887 1626 1332 1894 1770 1772 1660 1773 1782 1777 1774 1318 1436 1883 1637 1754 1439 1872 1735 1872 1884 1317 1758 1867 1430 1887 1436 1885 1664 1755 1440 1883 1847 1656 1884 1877 1882 1438 1737 1434 1417 1899 1885 1766 1542 1868 1443 1877 1746 1654 1884 1859 1516 1432 1844 1434 1756 1887 1321 1881 1887 1876 1893 1425 1762 1329 1536 1782 1872 1887 1770 1322 1218 1862 1864 1761 1433 1621 1750 1855 1781 1660 1889 1447 1641 1870 1840 1763 1208 1438 1437 1877 1411 1562 1836 1624 1428 1847 1630 1656 1881 1858 1880 1442 1433 1875 1624 1615 1758 1219 1883 1876 1882 1845 1423 1864 1527 1760 1890 1765 1866 1535 1870 1879 1218 1879 1774 1754 1864 1111 1870 1443 1420 1882 1103 1748 1879 1860 1335 1852 1419 1434 1849 1756 1873 1432 1653 1428 1429 1764 1849 1890 1653 1322 1536 1210 1635 1743 1863 1770 1552 1536 1535 1548 1878 1871 1619 1396 1755 1546 1871 1862 1546 1769 1436 1553 1763 1423 1751 1745 1774 1864 1782 1311 1868 1631 1108 1774 1858 1780 1768 1877 1406 1339 1646 1771 1867 1736 1784 1538 1752 1891 1087 1528 1417 1603 1542 1873 1877 1884 1871 1879 1543 1874 1846 1544 1633 1645 1431 1522 1860 1866 1903 1757 1859 1762 1886 1770 1622 1761 1879 1211 1846 1669 1414 1548 1759 1890 1885 1878 1750 1335 1892 1424 1773 1654 1537 1622 1546 1662 1650 1658 1424 1883 1556 1614 1335 1833 1556 1435 1305 1527 1324 1836 1771 1544 1757 1874 1423 1881 1533 1734 1635 1891 1852 1767 1750 1865 1879 1636 1869 1791 1885 1768 1754 1443 1880 1656 1309 1877 1899 1866 1595 1866 1320 1870 1844 1332 1863 1732 1733 1532 1885 1644 1422 1544 1641 1747 1869 1882 1872 1863 1869 1104 1427 1414 1331 1757 1761 1543 1865 1767 1735 1428 1292 1889 1537 1870 1531 1757 1550 1644 1425 1518 1773 1872 1770 1761 1553 1434 1733 1885 1458 1759 1662 1423 1541 1761 1323 1515 1547 1903 1878 1868 1876 1634 1664 1323 1859 1868 1427 1745 1842 1409 1748 1870 1534 1649 1869 1912 1720 1863 1751 1301 1733 1115 1880 1879 1743 1886 1727 1765 1891 1725 1873 1835 1659 1778 1864 1777 1770 1758 1650 1338 1845 1772 1745 1666 1755 1893 1653 1546 1219 1885 1539 1878 1895 1748 1322 1392 1731 1434 1762 1784 1632 1895 1436 1753 1790 1780 1883 1838 1541 1903 1873 1635 1888 1883 1438 1533 1768 1757 1560 1534 1748 1529 1873 1301 1773 1888 1619 1757 1419 1891 1878 1856 1875 1888 1738 1731 1883 1286 1629 1779 1741 1760 1884 1756 1858 1776 1895 1883 1516 1521 1751 1776 1780 1874 1882 1760 1120 1662 1727 1285 1859 1640 1770 1879 1898 1883 1435 1839 1878 1656 1741 1905 1755 1856 1780 1654 1518 1891 1837 1530 1532 1218 1543 1755 1110 1846 1740 1892 1666 1874 1442 1539 1887 1762 1823 1883 1765 1682 1889 1751 1885 1558 1553 1478 1771 1886 1762 1885 1117 1881 1660 1777 1764 1450 1760 1759 1633 1426 1763 1745 1847 1863 1767 1862 895 1884 1737 1097 1884 1767 1525 1879 1882 1857 1549 1778 1661 1872 1651 1552 1871 1749 1762 1881 1444 1884 1667 1647 1535 1437 1636 1770 1644 1875 1535 1884 1756 1873 1773 1874 1770 1880 1877 1429 1762 1549 1418 1775 1550 1768 1869 1876 1555 1861 1613 1848 1861 1671 1868 1329 1223 1541 1309 1873 1634 1886 1421 1768 1822 1438 1772 1763 1791 1857 1810 1875 1436 1885 1880 1675 1748 1781 1528 1628 1447 1870 1875 1538 1860 1875 1875 1540 1765 1433 1676 1895 1673 1748 1311 1859 1311 1773 1771 1766 1774 1749 1882 1772 1890 1870 1896 1418 1879 1407 1759 1755 1866 1729 1722 1775 1422 1751 1781 1756 1757 1421 1325 1860 1450 1882 1866 1663 1661 1751 1556 1776 1875 1852 1774 1890 1768 1655 1857 1765 1794 1874 1862 1613 1529 1874 1765 1747 1401 1883 1727 1831 1876 1769 1751 1774 1755 1765 1768 1870 1541 1649 1881 1900 1563 1884 1871 1762 1885 1420 1314 1545 1795 1554 1659 1552 1319 1757 1665 1534 1858 1880 1885 1775 1756 1557 1760 1751 1886 1741 1888 1542 1845 1903 1872 1890 1423 1894 1870 1645 1770 1832 1754 1877 1773 1657 1556 1566 1776 1438 1867 1878 1883 1865 1638 1760 1860 1427 1885 1872 1640 1733 1767 1772 1881 1283 1868 1896 1856 1887 1659 1562 1759 1748 1515 1560 1788 1768 1875 1895 1860 1876 1742 1872 1437 1761 1877 1561 1865 1893 1751 777 1717 1534 1865 1768 1834 1765 1543 1877 1767 1764 1842 1545 1891 1639 1747 1871 1438 1647 1439 1774 1539 1764 1756 1873 1778 1653 1543 1902 1631 1323 1536 1856 1847 1721 1889

Tree=0
num_leaves=16
num_cat=0
split_feature=10 10 10 10 14 10 37 37 14 6 37 14 14 10 14
split_gain=7277.98 1411.07 1235.38 254.871 236.571 234.702 171.008 97.6179 91.2995 81.8361 68.831 63.6157 54.1598 43.2128 26.651
threshold=9.660486920478208 -148.30671722717008 154.6860907174503 275.61274024630194 0.42368000413845625 -319.89689457873334 1.0000000180025095e-35 -1.0000000180025095e-35 0.39012427861920213 1517.9951740732311 -1.0000000180025095e-35 0.54119264196293904 0.64231769634659741 376.161344180561 0.093808750468207414
decision_type=2 2 2 2 2 2 2 2 2 2 2 2 2 2 2
left_child=1 5 6 12 10 14 9 -6 -7 -2 -3 -8 -4 -5 -1
right_child=2 4 3 13 7 8 11 -9 -10 -11 -12 -13 -14 -15 -16
leaf_value=-0.052830512074796769 0.0017358399423769892 -0.017860813077400287 0.027921856313931081 0.050819903674018049 -0.0046092282829702002 -0.0291073061752238 0.016576674965961838 0.0077290341611164302 -0.012960233719220341 0.015627227158958912 -0.0058476421806413206 0.028411358189087268 0.040499981392684153 0.063029281901975903 -0.041139860164343282
leaf_weight=370.49668747186661 730.74346658587456 1206.239215284586 549.74508485198021 808.49277144670486 1333.238079816103 2201.2303192913532 817.99268651008606 1727.2345571815968 508.74545142054558 1557.986070394516 1052.7405876815319 1550.7361352145672 1542.7362067401409 605.24458864331245 645.74422654509544
leaf_count=1482 2923 4825 2199 3234 5333 8805 3272 6909 2035 6232 4211 6203 6171 2421 2583
internal_value=0.00598508 -0.0151834 0.0294405 0.0448039 -0.00385461 -0.0313537 0.0178729 0.00235692 -0.0260792 0.0111882 -0.0122662 0.0243281 0.0371995 0.056053 -0.0454105
internal_weight=17209.3 9045.67 8163.68 3506.22 5319.45 3726.22 4657.46 3060.47 2709.98 2288.73 2258.98 2368.73 2092.48 1413.74 1016.24
internal_count=68838 36183 32655 14025 21278 14905 18630 12242 10840 9155 9036 9475 8370 5655 4065
is_linear=0
shrinkage=1


Tree=1
num_leaves=16
num_cat=0
split_feature=15 15 13 37 37 15 13 15 43 13 43 23 37 13 43
split_gain=6265.86 1704.4 799.662 387.785 181.742 167.588 131.782 129.602 100.959 63.48 59.4256 45.983 26.8643 25.4206 9.45415
threshold=0.45683911465939359 0.69396851580278784 177.68353985684226 -1.0000000180025095e-35 1.0000000180025095e-35 0.8817491839678272 265.03882586192429 0.5845992200841964 -0.12361111111111109 114.64296470466208 -0.097619047619047536 1633.812634113767 2.5000000000000004 373.82328361611673 -0.099999999999999936
decision_type=2 2 2 2 2 2 2 2 2 2 2 2 2 2 2
left_child=2 3 4 8 9 10 12 -5 -2 -1 -3 -6 -4 -8 -7
right_child=1 5 6 7 11 14 13 -9 -10 -11 -12 -13 -14 -15 -16
leaf_value=0.0053065485826997248 -0.023202407593655133 -0.036460833746861918 0.028771702999717395 0.0041105768875617996 0.026744287564906221 -0.055492308225735691 0.044726113085219968 -0.0097939628240708548 -0.010826970585658876 0.018538178660309174 -0.024070845756597854 0.017155632619854071 0.039036791648843598 0.055096696489224911 -0.042327135613098497
leaf_weight=1519.1530880481005 1403.1322060078382 2103.5232896506786 760.21474388241768 2633.6148926317692 1425.1215120404959 524.44604156911373 733.79995237290859 1122.4329727888107 1735.1528785973787 593.13480505347252 585.92454375326633 1011.0394222289324 508.52197781205177 466.83529679477215 79.968347668647766
leaf_count=6077 5613 8416 3042 10535 5702 2099 2937 4490 6941 2373 2344 4045 2035 1869 320
internal_value=0 -0.0171611 0.0249139 -0.00747259 0.0163884 -0.0374373 0.0406139 -4.22707e-05 -0.0163628 0.0090261 -0.0337647 0.0227684 0.0328928 0.0487656 -0.0537647
internal_weight=17206 10188.2 7017.82 6894.33 4548.45 3293.86 2469.37 3756.05 3138.29 2112.29 2689.45 2436.16 1268.74 1200.64 604.414
internal_count=68838 40758 28080 27579 18197 13179 9883 15025 12554 8450 10760 9747 5077 4806 2419
is_linear=0
shrinkage=0.0342644


Tree=2
num_leaves=16
num_cat=0
split_feature=10 10 10 10 10 13 13 15 23 13 10 13 10 20 19
split_gain=6405.89 1241.06 1098.26 273.899 233.647 190.78 97.692 65.0167 60.905 50.6778 48.6273 42.2894 38.1421 34.2509 32.0025
threshold=9.660486920478208 -136.90616594638377 135.80367490678239 275.61274024630194 -271.33364129085868 -39.412115728962128 31.18515471597539 0.61622264169035879 1513.2081657813899 32.486835269625779 -392.99675165928005 65.095309510226016 376.161344180561 1.0609975662993134 0.45846977969200364
decision_type=2 2 2 2 2 2 2 2 2 2 2 2 2 2 2
left_child=1 4 6 9 10 8 14 -6 -3 -4 -1 -7 -5 -8 -2
right_child=2 5 3 12 7 11 13 -9 -10 -11 -12 -13 -14 -15 -16
leaf_value=-0.053149734159726236 -0.015603770564365706 0.021289918607456666 0.015707966849851398 0.042133542844438682 -0.01779863129863898 -0.0040538190961031907 0.030441091626298874 -0.030822648066316988 -0.01630492127348019 0.030102455905795539 -0.040184289415983419 0.0078575207401542484 0.053625350807724348 0.013145847398366009 0.0046614896121587616
leaf_weight=540.71752762794495 96.745286524295807 51.497265189886093 332.69318290054798 806.92628875374794 593.3932379335165 2208.8428799957037 143.66567189991474 1911.6098446249962 2371.9447423666716 2229.9085047841072 947.24433250725269 415.44821757078171 603.3784576356411 2308.4751622229815 1634.8890874534845
leaf_count=2168 387 206 1331 3234 2374 8836 575 7653 9490 8929 3794 1662 2421 9238 6540
internal_value=0 -0.0198635 0.0220165 0.0349197 -0.034138 -0.00857003 0.00976158 -0.0277409 -0.0155025 0.028237 -0.0449017 -0.00216487 0.0470563 0.0141627 0.0035243
internal_weight=17197.4 9040.7 8156.68 3972.91 3992.96 5047.73 4183.78 2505 2423.44 2562.6 1487.96 2624.29 1410.3 2452.14 1731.63
internal_count=68838 36183 32655 15915 15989 20194 16740 10027 9696 10260 5962 10498 5655 9813 6927
is_linear=0
shrinkage=0.0342644


Tree=3
num_leaves=16
num_cat=0
split_feature=14 15 14 37 37 15 7 14 43 9 26 22 26 14 43
split_gain=5466.12 1502.24 701.448 351.462 168.258 149.403 116.846 114.692 89.331 64.5788 63.5926 60.2492 28.771 23.1554 8.51984
threshold=0.54316088534060658 0.69396851580278784 0.73762426468813935 -1.0000000180025095e-35 1.0000000180025095e-35 0.8817491839678272 1507.0184793994788 0.82018091310842778 -0.24722222222222218 1526.9014814673803 -1.499999999999998 1518.7180789221691 3.149999999999999 0.89532683833220916 -0.099999999999999936
decision_type=2 2 2 2 2 2 2 2 2 2 2 2 2 2 2
left_child=1 3 4 8 11 10 -5 12 -1 -6 -3 -2 -4 -9 -7
right_child=2 5 7 6 9 14 -8 13 -10 -11 -12 -13 -14 -15 -16
leaf_value=-0.024889670039680345 -0.012539748425335109 -0.025645524028674965 0.034527244343492525 0.0083022723755884955 0.027776953595476342 -0.052207276563055446 -0.0043403378982075306 0.041862440742607233 -0.011871660645253719 0.016564588400803076 -0.036311820463604323 0.0099450595780607772 0.023262366646681746 0.051733963559639176 -0.039666495219179247
leaf_weight=851.68314129114151 150.23437061905861 1178.2926027178764 804.52579437196255 1327.5546233952045 1086.0673203468323 521.72699931263924 2427.8574864268303 739.20205837488174 2285.0748987793922 1371.1740236282349 1505.8226072788239 1977.8333955407143 407.2103646248579 469.32079671323299 79.706633865833282
leaf_count=3410 601 4723 3227 5311 4352 2099 9714 2970 9144 5491 6037 7916 1633 1890 320
internal_value=0 -0.0160332 0.0232936 -0.00694271 0.0154133 -0.0350999 0.000126585 0.0382196 -0.015409 0.0215238 -0.0316327 0.00835366 0.0307487 0.0457031 -0.0505596
internal_weight=17183.3 10177.7 7005.57 6892.17 4585.31 3285.55 3755.41 2420.26 3136.76 2457.24 2684.12 2128.07 1211.74 1208.52 601.434
internal_count=68838 40758 28080 27579 18360 13179 15025 9720 12554 9843 10760 8517 4860 4860 2419
is_linear=0
shrinkage=0.0342644


Tree=4
num_leaves=16
num_cat=0
split_feature=13 13 13 13 13 13 18 23 34 26 26 20 13 2 26
split_gain=5100.36 1506.72 589.407 241.045 185.186 137.403 115.676 82.5719 61.2248 57.729 56.7665 54.487 21.449 12.191 8.34407
threshold=-39.412115728962128 114.64296470466208 -145.02522774969631 265.03882586192429 31.18515471597539 -348.58065210891419 -1.6471130994489156 1518.7519460294129 1.0000000180025095e-35 -8.8499999999999996 2.7999999999999994 1.0000000180025095e-35 373.82328361611673 33.500000000000007 -10.499999999999996
decision_type=2 2 2 2 2 2 2 2 2 2 2 2 2 2 2
left_child=2 4 5 10 6 14 -2 13 -9 -7 -3 -6 -5 -4 -1
right_child=1 3 7 12 11 9 -8 8 -10 -11 -12 -13 -14 -15 -16
leaf_value=-0.032100114186627407 0.005875074438904471 0.029623328424826189 -0.013613879188718172 0.040713058901183187 0.034154728623468487 -0.012301944545694112 -0.0063183956334661 -0.012857103548875409 -0.026768725619586448 -0.032204058415089998 0.019274703287745148 0.010163080074529925 0.050294181731002925 0.018449860357151751 -0.050027176701399195
leaf_weight=35.166718497872353 1779.0235494077206 1762.1727452725172 15.745840460062025 728.62970598042011 115.93263271450996 185.64442349970341 1877.1489711403847 2809.4324755072594 429.73629274964333 2426.898183465004 972.10049888491631 2895.2084167450666 461.83205661177635 104.47335435450077 566.13031694293022
leaf_count=142 7118 7073 63 2937 465 745 7511 11248 1721 9746 3900 11595 1869 418 2287
internal_value=0 0.0147138 -0.0237091 0.0315579 0.00479711 -0.034201 -0.000382929 -0.0136692 -0.0147054 -0.0307931 0.0259473 0.0110897 0.0444372 0.0141786 -0.0489931
internal_weight=17165.3 10592 6573.23 3924.74 6667.31 3213.84 3656.17 3359.39 3239.17 2612.54 2734.27 3011.14 1190.46 120.219 601.297
internal_count=68838 42468 26370 15779 26689 12920 14629 13450 12969 10491 10973 12060 4806 481 2429
is_linear=0
shrinkage=0.0342644


Tree=5
num_leaves=16
num_cat=0
split_feature=10 10 10 10 10 37 37 7 22 37 10 7 5 56 7
split_gain=5342 1038.43 930.363 249.981 199.227 140.262 115.753 74.8847 46.1373 42.5083 41.4781 38.3172 35.5909 33.433 26.9586
threshold=9.660486920478208 -136.90616594638377 127.93862521861151 275.61274024630194 -271.33364129085868 -1.0000000180025095e-35 1.0000000180025095e-35 1500.0019727249344 1508.7722297756484 2.5000000000000004 -392.99675165928005 1515.6183440399184 4.0000000000000009 0.66890058695486976 1601.0923626412987
decision_type=2 2 2 2 2 2 2 2 2 2 2 2 2 2 2
left_child=1 4 6 9 10 13 8 -7 -2 -4 -1 -8 -5 -3 -6
right_child=2 5 3 12 14 7 11 -9 -10 -11 -12 -13 -14 -15 -16
leaf_value=-0.048934193372901197 -0.016118247504560614 -0.019532931596768156 0.022036987996980437 0.039955955408525562 -0.019375342302219625 0.0062225248657942897 0.019056738187650451 -0.0062450636017122316 0.0039844353446816909 0.030779822515729333 -0.036893258250155526 0.0094350956971260003 0.052400963859187105 -0.010944777826249197 -0.027505162407490392
leaf_weight=534.2829637825489 144.20951724052429 817.86729845404625 1665.5218743681908 1020.3380700498819 659.99481318891048 811.45776772499084 976.24976667761803 1863.8692059218884 1878.855665564537 1089.5466457158327 940.9755684286356 978.11369252204895 375.74551983177662 1550.5244399607182 1836.1401315927505
leaf_count=2168 577 3276 6690 4133 2645 3247 3914 7461 7521 4380 3794 3918 1522 6210 7382
internal_value=0 -0.0181618 0.0201431 0.0314908 -0.0312679 -0.0078404 0.0082976 -0.00246028 0.0025472 0.0254976 -0.0412599 0.0142457 0.0433116 -0.0139141 -0.025359
internal_weight=17143.7 9015.11 8128.58 4151.15 3971.39 5043.72 3977.43 2675.33 2023.07 2755.07 1475.26 1954.36 1396.08 2368.39 2496.13
internal_count=68838 36183 32655 16725 15989 20194 15930 10708 8098 11070 5962 7832 5655 9486 10027
is_linear=0
shrinkage=0.0342644


Tree=6
num_leaves=16
num_cat=0
split_feature=10 10 10 10 10 14 10 14 64 13 26 5 13 61 10
split_gain=4990.34 975.138 874.193 225.541 168.817 160.451 74.9609 58.9525 50.0753 40.5014 36.1428 33.7702 32.2705 29.3005 19.0334
threshold=9.660486920478208 -148.30671722717008 133.08431779803314 275.61274024630194 -319.89689457873334 0.38461977823558541 67.698479601044724 0.39012427861920213 -19.462894758727085 100.74334901007025 -3.5000000000000013 4.0000000000000009 -92.302485949087426 -0.0040508564985032988 -427.80908388779829
decision_type=2 2 2 2 2 2 2 2 2 2 2 2 2 2 2
left_child=1 4 6 9 14 10 12 -6 -7 -4 -3 -5 -2 -8 -1
right_child=2 5 3 11 7 8 13 -9 -10 -11 -12 -13 -14 -15 -16
leaf_value=-0.04903850858583958 -0.013855704003665951 -0.0096598902282628383 0.01844934985228034 0.038774457822338425 -0.029072585398568683 -0.014717384058990758 0.0076050469278007701 -0.016068139978398951 -0.0027478829947635945 0.027768675321992908 -0.020789918978490547 0.050935593146640847 0.0049620009990251294 0.016387855863353611 -0.03921796690591655
leaf_weight=397.91251060366631 112.68600824475288 505.16708581149578 792.67943017184734 1015.4856216013432 2183.5919009745121 470.33887447416782 699.21932117640972 507.7818727940321 3249.3167189955711 1822.9615632593632 1087.5918072611094 373.35104930400848 2044.677903264761 1254.0562320053577 601.05238698422909
leaf_count=1626 451 2026 3180 4133 8805 1883 2802 2035 13006 7350 4363 1522 8189 5028 2439
internal_value=0 -0.0175645 0.0194863 0.0308812 -0.0310954 -0.00816344 0.00838358 -0.0266222 -0.00426371 0.0249477 -0.0172653 0.0420499 0.0039751 0.0132483 -0.0431384
internal_weight=17117.9 9002.75 8115.12 4004.48 3690.34 5312.41 4110.64 2691.37 3719.66 2615.64 1592.76 1388.84 2157.36 1953.28 998.965
internal_count=68838 36183 32655 16185 14905 21278 16470 10840 14889 10530 6389 5655 8640 7830 4065
is_linear=0
shrinkage=0.0342644


Tree=7
num_leaves=16
num_cat=0
split_feature=10 10 10 10 10 13 10 13 33 13 33 10 33 13 5
split_gain=4665.58 1075.48 670.412 198.476 180.395 168.527 63.3967 54.3958 50.9408 45.4324 42.3384 37.77 31.0482 19.9794 7.8258
threshold=28.406358332046242 -136.90616594638377 229.97083774535386 108.19769600639314 -271.33364129085868 -39.412115728962128 376.161344180561 65.095309510226016 52.500000000000007 -150.83889512318521 -16.499999999999996 -392.99675165928005 12.500000000000002 96.402379325810912 4.0000000000000009
decision_type=2 2 2 2 2 2 2 2 2 2 2 2 2 2 2
left_child=1 4 3 8 11 10 13 -7 -2 -6 -3 -1 -5 -4 -8
right_child=2 5 6 12 9 7 14 -9 -10 -11 -12 -13 -14 -15 -16
leaf_value=-0.046303476699678263 0.0087695642515600875 -1.2678295323113684e-05 0.022850366884790974 0.022289448760438833 -0.02821515645009277 -0.002956173627020935 0.044325797110097334 0.0089510740337646211 -0.013720609993253956 -0.018910595050205186 -0.01428863863964845 -0.034745268777446173 0.010991209172768846 0.035220152448590392 0.053249241183540831
leaf_weight=527.11585259437561 2571.0025803595781 274.60248723626137 180.457076177001 2353.191204354167 1287.7651815861464 2696.7090599536896 406.31021302938461 540.58390288054943 123.65074378252029 1198.7739330977201 2270.7544152736664 934.03191614151001 328.6643749922514 1213.1153526753187 181.75800853967667
leaf_count=2168 10305 1100 727 9478 5210 10792 1671 2165 495 4817 9107 3794 1322 4937 750
internal_value=0 -0.0155689 0.0205887 0.0143071 -0.0293565 -0.00615483 0.0376274 -0.000965163 0.00773435 -0.0237328 -0.0127519 -0.0389208 0.0209081 0.0336245 0.0470985
internal_weight=17088.5 9730.34 7358.15 5376.51 3947.69 5782.65 1981.64 3237.29 2694.65 2486.54 2545.36 1461.15 2681.86 1393.57 588.068
internal_count=68838 39153 29685 21600 15989 23164 8085 12957 10800 10027 10207 5962 10800 5664 2421
is_linear=0
shrinkage=0.0342644


Tree=8
num_leaves=16
num_cat=0
split_feature=13 13 13 37 13 37 13 43 26 43 43 12 26 13 26
split_gain=3966.7 1099.32 538.05 267.418 136.855 133.138 91.9243 84.945 78.5439 61.4925 56.0496 35.3722 24.4783 19.0697 7.99446
threshold=29.886377408765046 -127.72917692452312 177.68353985684226 -1.0000000180025095e-35 -348.58065210891419 1.5000000000000002 265.03882586192429 0.046031746031746007 -8.8499999999999996 -0.24722222222222218 0.14722222222222223 1500.0019727249344 3.149999999999999 411.41162940741987 -10.499999999999996
decision_type=2 2 2 2 2 2 2 2 2 2 2 2 2 2 2
left_child=1 4 5 9 14 10 12 -5 -6 -3 -2 -7 -4 -8 -1
right_child=2 3 6 7 8 11 13 -9 -10 -11 -12 -13 -14 -15 -16
leaf_value=-0.02747004392799262 0.0046949532823607875 -0.021299363391651085 0.029950179852197154 -0.0036392604092148249 -0.0057166056098320569 0.024985931099123247 0.037183511341735462 0.0069922862255472904 -0.027531381406365418 -0.010039749847003466 0.01539244272260736 0.015484314874771645 0.019718099609473572 0.047146582887817569 -0.045163691876954855
leaf_weight=34.433105334639549 1831.9930386245251 777.39082562923431 830.94184245169163 2062.6817882359028 209.39974425733089 884.95427879691124 844.04387834668159 1541.4614517837763 2776.9056250751019 2153.9724310487509 840.68650694191456 974.63238966464996 419.72477631270885 320.86522907018661 551.87698195874691
leaf_count=142 7347 3127 3377 8261 846 3571 3471 6174 11259 8635 3382 3924 1700 1335 2287
internal_value=0 -0.0136993 0.0199313 -0.00534315 -0.0289831 0.012967 0.0329947 0.00090537 -0.0260046 -0.0130287 0.00806305 0.0200107 0.0265232 0.0399352 -0.0441393
internal_weight=17056 10108.1 6947.84 6535.51 3572.62 4532.27 2415.58 3604.14 2986.31 2931.36 2672.68 1859.59 1250.67 1164.91 586.31
internal_count=68838 40731 28107 26197 14534 18224 9883 14435 12105 11762 10729 7495 5077 4806 2429
is_linear=0
shrinkage=0.0342644


Tree=9
num_leaves=16
num_cat=0
split_feature=14 14 14 37 14 37 14 9 8 12 26 37 8 5 26
split_gain=3713.7 1068.89 494.299 248.921 187.175 118.783 109.077 86.8192 78.2669 51.9551 51.8371 50.1782 37.1558 27.6353 7.61798
threshold=0.45317697811759922 0.66057581062120974 0.30312100696844585 1.0000000180025095e-35 0.80976369476994414 -1.0000000180025095e-35 0.11856683515852291 1519.4597782127628 1585.4290866342731 1506.8894118204319 -0.99999999999999811 2.5000000000000004 1506.2837147242851 4.0000000000000009 -5.5499999999999998
decision_type=2 2 2 2 2 2 2 2 2 2 2 2 2 2 2
left_child=2 3 6 8 11 12 14 -5 -2 -7 -8 -3 -4 -6 -1
right_child=1 4 5 7 13 9 10 -9 -10 -11 -12 -13 -14 -15 -16
leaf_value=-0.034805600188408753 -0.0062383434182183475 0.018162609677974628 -0.023261745454276669 0.019205426285515536 0.035125441331893333 0.0099270482801765737 -0.021385791287980079 0.0070212625267920235 0.0039797725312929848 -0.0069367694646348772 -0.031134539475988238 0.028156877685644816 -0.013268044231036622 0.04702251501136414 -0.044984437635353848
leaf_weight=117.01533654332161 1931.9988337308168 1580.6062942892313 691.23013117909431 1166.5537574887276 996.16344882547855 250.46412323415279 1231.8202109783888 1677.1516712903976 1615.513565659523 1480.1318825483322 1354.7091930657625 950.53551617264748 1208.3102545291185 305.58339186012745 464.51025976240635
leaf_count=488 7738 6395 2785 4695 4125 1003 5006 6730 6475 5935 5524 3865 4857 1275 1942
internal_value=0 0.0130507 -0.0196266 0.00446948 0.0273574 -0.0109915 -0.0295185 0.0120225 -0.00158265 -0.00449114 -0.0264951 0.0219192 -0.0169092 0.0379249 -0.0429511
internal_weight=17022.3 10224.1 6798.19 6391.22 3832.89 3630.14 3168.06 2843.71 3547.51 1730.6 2586.53 2531.14 1899.54 1301.75 581.526
internal_count=68838 41298 27540 25638 15660 14580 12960 11425 14213 6938 10530 10260 7642 5400 2430
is_linear=0
shrinkage=0.0342644


Tree=10
num_leaves=16
num_cat=0
split_feature=14 14 13 14 13 18 13 22 8 13 24 24 13 54 4
split_gain=3489.37 974.307 478.673 184.559 121.319 106.525 105.5 61.1153 48.5059 44.8106 36.9114 26.0338 14.5075 5.9434 5.46252
threshold=0.54316088534060658 0.30312100696844585 211.80237313988007 0.40873839761627312 110.03364509354583 -1.6471130994489156 -348.58065210891419 1529.4276753047282 1557.7062962308908 373.82328361611673 29.250000000000004 23.150000000000002 265.03882586192429 0.027424087062600102 1.0000000180025095e-35
decision_type=2 2 2 2 2 2 2 2 2 2 2 2 2 2 2
left_child=1 6 4 8 7 -5 13 -2 -3 12 -6 -8 -4 -1 -11
right_child=2 3 9 5 10 -7 11 -9 -10 14 -12 -13 -14 -15 -16
leaf_value=-0.045720237364546987 -0.0092374869016793437 -0.018700537157493077 0.027107181398669394 0.0035989498910127733 0.0224215980015018 -0.0068529396136202637 -0.019284664051359934 0.010197402472108239 -0.0088148630647734774 0.053007914672077161 0.012608965855352624 -0.027553047550872806 0.034305817417389736 -0.038400816047674417 0.041768962083325062
leaf_weight=276.14271338284016 203.74386957287788 1106.1463312804699 652.08596122264862 2275.1643943637609 1535.9789985269308 2303.3647341430187 587.43934984505177 2723.0319717675447 1242.1600403189659 66.811079010367393 643.61596602201462 1989.9711427241564 705.83516491949558 299.77175281941891 374.9483575373888
leaf_count=1166 816 4458 2670 9116 6234 9232 2395 10949 4992 284 2605 8136 2937 1263 1585
internal_value=0 -0.0128539 0.0187627 -0.00566496 0.0134046 -0.0016573 -0.0286431 0.00884152 -0.0134751 0.0339611 0.019528 -0.0256719 0.0308553 -0.0419253 0.0434882
internal_weight=16986.2 10080.2 6906.05 6926.84 5106.37 4578.53 3153.32 2926.78 2348.31 1799.68 2179.59 2577.41 1357.92 575.914 441.759
internal_count=68838 40758 28080 27798 20604 18348 12960 11765 9450 7476 8839 10531 5607 2429 1869
is_linear=0
shrinkage=0.0342644


Tree=11
num_leaves=16
num_cat=0
split_feature=13 13 13 14 43 43 22 13 33 58 1 43 16 13 43
split_gain=3262.92 987.122 391.48 172.627 168.175 105.682 99.6555 86.6685 53.0659 43.6185 36.5147 34.0017 28.9245 23.5056 7.68049
threshold=-39.412115728962128 114.64296470466208 -163.46626512503323 0.80976369476994414 0.16190476190476188 -0.19999999999999993 1527.1881658560535 -348.58065210891419 19.500000000000004 0.035769708134673159 952.50000000000011 0.074999999999999969 -1.8958681775384318 373.82328361611673 -0.099999999999999936
decision_type=2 2 2 2 2 2 2 2 2 2 2 2 2 2 2
left_child=2 4 7 10 6 12 -2 14 -7 -6 -3 -9 -4 -5 -1
right_child=1 3 5 13 9 8 -8 11 -10 -11 -12 -13 -14 -15 -16
leaf_value=-0.042511502554674251 -0.010538130731605378 0.022708232170354812 -0.018383611777574863 0.032556203455244813 0.0080267873389917015 -0.0057170588777799326 0.0025895698478834851 -0.027178661473910046 -0.019349535541072122 0.018394895299198376 0.012813226577290124 -0.011879564269567251 -0.035882909498338389 0.042453287682894983 -0.030409277699385416
leaf_weight=493.55058655142784 825.36587281525135 1979.1270139366388 1101.6966984719038 844.78277866542339 1205.5910932868719 2111.9695675522089 3825.1208580285311 1973.513030141592 399.52442507445812 792.93977761268616 568.19641923904419 188.96747839450836 124.7118926346302 437.1116334348917 76.694890379905701
leaf_count=2107 3307 8066 4458 3531 4847 8491 15341 8109 1610 3194 2313 768 505 1869 322
internal_value=0 0.0118146 -0.019131 0.0256733 0.00383204 -0.0119208 0.000257819 -0.0289901 -0.00788912 0.0121448 0.0205045 -0.0258457 -0.0201701 0.0359377 -0.0408989
internal_weight=16948.9 10478.2 6470.63 3829.22 6649.02 3737.9 4650.49 2732.73 2511.49 1998.53 2547.32 2162.48 1226.41 1281.89 570.245
internal_count=68838 42468 26370 15779 26689 15064 18648 11306 10101 8041 10379 8877 4963 5400 2429
is_linear=0
shrinkage=0.0342644


Tree=12
num_leaves=16
num_cat=0
split_feature=10 10 10 10 10 37 37 7 13 10 20 37 15 4 10
split_gain=3487.44 699.802 642.811 139.868 132.655 124.288 103.635 59.4141 49.2322 45.2213 37.1114 34.765 32.7064 23.8412 18.0826
threshold=9.660486920478208 -148.30671722717008 154.6860907174503 294.96612882058065 -311.68076338786187 -1.0000000180025095e-35 1.0000000180025095e-35 1500.0019727249344 -82.216387651647196 108.19769600639314 0.77876725406675729 -1.0000000180025095e-35 0.59463146582992621 1.0000000180025095e-35 -427.80908388779829
decision_type=2 2 2 2 2 2 2 2 2 2 2 2 2 2 2
left_child=1 4 6 11 14 8 9 -7 -3 -2 -8 -4 -6 -5 -1
right_child=2 5 3 13 12 7 10 -9 -10 -11 -12 -13 -14 -15 -16
leaf_value=-0.042883382474589435 0.00036520059284058276 -0.019065105330623795 0.014506944856044821 0.048735421503775335 -0.013643800033797017 0.005913838217821178 0.027814970202110934 -0.0050730119466300214 -0.0089156002456896987 0.012109628168854114 0.011882807713875208 0.025000862309012689 -0.023997296059397735 0.035292434054402959 -0.03330863709752227
leaf_weight=377.92160832881927 1789.3468540608883 848.61315096914768 474.90180078148842 190.17469456791878 435.14701324701309 820.48832410573959 187.51448665559292 1951.2667347192764 1674.2918962985277 490.99797196686268 2161.1557683199644 1764.8347779363394 2146.2568765878677 950.58956012129784 646.51519703865051
leaf_count=1626 7175 3439 1942 810 1750 3286 758 7834 6719 1980 8717 7238 8819 4035 2710
internal_value=0 -0.0147608 0.0164036 0.0277635 -0.0264039 -0.00682979 0.00810571 -0.0018176 -0.0123329 0.00289776 0.0131585 0.0227796 -0.0222553 0.037541 -0.0368492
internal_weight=16910 8900.5 8009.52 3380.5 3605.84 5294.66 4629.02 2771.76 2522.91 2280.34 2348.67 2239.74 2581.4 1140.76 1024.44
internal_count=68838 36183 32655 14025 14905 21278 18630 11120 10158 9155 9475 9180 10569 4845 4336
is_linear=0
shrinkage=0.0342644


Tree=13
num_leaves=16
num_cat=0
split_feature=10 10 10 10 10 10 33 10 33 22 10 13 33 28 4
split_gain=3267.74 935.445 376.461 142.114 140.648 73.3482 59.8231 53.3524 43.1613 36.7352 30.9104 26.31 23.9269 14.699 9.0381
threshold=57.743626164793689 -136.90616594638377 229.97083774535386 -271.33364129085868 -56.410912750032359 127.93862521861151 -6.4999999999999991 376.161344180561 -16.499999999999996 1524.6108225707646 -392.99675165928005 -150.83889512318521 14.500000000000002 207.00000000000003 1.0000000180025095e-35
decision_type=2 2 2 2 2 2 2 2 2 2 2 2 2 2 2
left_child=1 3 5 10 8 9 -6 13 -3 -2 -1 -5 -7 -4 -9
right_child=2 4 7 11 6 12 -8 14 -10 -11 -12 -13 -14 -15 -16
leaf_value=-0.040529687166508246 -0.014584485318123376 0.0037196780894302338 0.02912301858996319 -0.023426349766773685 0.00629176003492462 0.019793365593519945 -0.0026545223076279469 0.051388984912980468 -0.011956360555426896 0.01053637648802903 -0.029834328794827166 -0.016279629878556481 0.0063265365124323021 -0.0097033183814009289 0.039389619361845631
leaf_weight=499.91601571440697 70.388708204030991 226.69957226514816 1342.6499104201794 1258.6705370545387 1207.3416475653648 1945.1588766872883 3211.9834979772568 94.753429815173149 2194.5167605876923 2074.2895097583532 907.2906057536602 1189.3358238935471 170.40013247728348 11.211309179663656 463.05243770778179
leaf_count=2168 282 910 5617 5210 4845 7947 12888 414 8841 8358 3794 4817 693 47 2007
internal_value=0 -0.0114558 0.0198538 -0.0249542 -0.00384714 0.0141816 -0.000208484 0.0324903 -0.010485 0.00970789 -0.03364 -0.0199577 0.0187127 0.0287951 0.0414434
internal_weight=16867.7 10695.8 6171.9 3855.21 6840.54 4260.24 4419.33 1911.67 2421.22 2144.68 1407.21 2448.01 2115.56 1353.86 557.806
internal_count=68838 43473 25365 15989 27484 17280 17733 8085 9751 8640 5962 10027 8640 5664 2421
is_linear=0
shrinkage=0.0342644


Tree=14
num_leaves=16
num_cat=0
split_feature=14 14 13 37 37 15 23 26 26 13 13 9 26 26 37
split_gain=2730.49 767.447 389.591 218.645 113.801 91.778 73.0183 53.5794 48.7109 46.7762 39.6528 37.4502 22.5184 7.97982 7.47873
threshold=0.54316088534060658 0.30312100696844585 211.80237313988007 -1.0000000180025095e-35 1.5000000000000002 0.8817491839678272 1532.0553901848773 5.4999999999999991 -9.5499999999999989 -82.216387651647196 373.82328361611673 1517.8553746915347 3.9999999999999987 -10.499999999999996 1.5000000000000002
decision_type=2 2 2 2 2 2 2 2 2 2 2 2 2 2 2
left_child=1 5 4 9 7 8 -5 -2 -1 -3 12 -6 -4 -7 -12
right_child=2 3 10 6 11 13 -8 -9 -10 -11 14 -13 -14 -15 -16
leaf_value=-0.0035432541981152096 0.009798194352880242 -0.018034038090228053 0.030434694404496868 0.009243504686723622 0.023353352132630352 -0.021345322978499552 -0.0020945870274165744 -0.0018856487703822209 -0.024017294028016355 -0.0089460014054646066 0.035070705828903849 0.014091386413700292 0.020263910735713115 -0.039370098806335976 0.044531449285021257
leaf_weight=145.73537161946297 2381.4346628934145 961.40248768031597 971.52100968360901 865.85266537964344 883.52508720755577 32.826484858989716 2900.4188652336597 569.89268374443054 2392.5818198621273 2182.1147398501635 211.06257376074791 1241.346331551671 355.36458438634872 517.6038793772459 212.01604163646698
leaf_count=598 9624 3907 4112 3472 3629 142 11643 2301 9943 8776 930 5050 1495 2277 939
internal_value=0 -0.0114049 0.0167064 -0.00505652 0.0118974 -0.025604 0.000509712 0.00753916 -0.0228452 -0.0117282 0.0306511 0.0179466 0.0277173 -0.0383108 0.0398321
internal_weight=16824.7 9998.54 6826.16 6909.79 5076.2 3088.75 3766.27 2951.33 2538.32 3143.52 1749.96 2124.87 1326.89 550.43 423.079
internal_count=68838 40758 28080 27798 20604 12960 15115 11925 10541 12683 7476 8679 5607 2419 1869
is_linear=0
shrinkage=0.0342644


Tree=15
num_leaves=16
num_cat=0
split_feature=43 8 12 12 12 37 8 43 37 8 8 58 23 8 12
split_gain=1970.35 447.141 312.943 231.757 216.063 139.511 139.259 119.3 111.693 77.8853 72.6736 44.2125 39.4543 38.1013 29.0833
threshold=-0.054563492063492043 1723.1344471372965 1630.1678659835015 1511.31335359032 1553.7060762538374 1.0000000180025095e-35 1968.7497122373327 -0.25634920634920627 1.5000000000000002 1510.6353441715644 1546.0517052064884 0.031089480900629303 2076.820034271665 1832.473654944215 1502.519227996456
decision_type=2 2 2 2 2 2 2 2 2 2 2 2 2 2 2
left_child=2 3 5 8 13 9 -6 12 -2 -1 -5 -9 -4 -3 -7
right_child=1 4 7 10 6 14 -8 11 -10 -11 -12 -13 -14 -15 -16
leaf_value=-0.015802715088331025 0.0052418760896402452 0.024838133707141403 -0.025287549541251429 -0.012708210292278433 0.0076868955848217284 0.01272632512513531 0.027720081418703836 -0.017241137832037418 0.01852005998396963 -0.0039948258647371998 0.0002310719455585541 -0.0029123421630319083 -0.040035681532644772 0.035989797630692294 0.00011450552970442057
leaf_weight=1450.2431548237801 1777.2847556918859 893.00395737588406 1433.1555858105421 659.49431300163269 1678.2450051754713 359.00739225745201 538.92383414506912 1564.3738475292921 1282.1311036348343 1201.5952517688274 2236.9985067844391 303.33842013776302 253.14608190953732 613.83207117021084 537.43443366885185
leaf_count=5874 7163 3732 6026 2672 6848 1449 2304 6460 5235 4845 9032 1238 1119 2674 2167
internal_value=0 0.0100571 -0.013706 0.0042321 0.019371 -0.00650426 0.0125602 -0.0208938 0.0108093 -0.0104556 -0.00271206 -0.0149186 -0.0275066 0.0293867 0.00517491
internal_weight=16782.2 9679.91 7102.29 5955.91 3724 3548.28 2217.17 3554.01 3059.42 2651.84 2896.49 1867.71 1686.3 1506.84 896.442
internal_count=68838 39660 29178 24102 15558 14335 9152 14843 12398 10719 11704 7698 7145 6406 3616
is_linear=0
shrinkage=0.0342644


Tree=16
num_leaves=16
num_cat=0
split_feature=43 8 7 7 7 11 11 8 8 23 11 7 7 33 8
split_gain=1842.15 421.556 294.318 235.115 177.069 145.139 131.632 111.174 110.302 99.247 92.879 83.6076 40.6251 27.0438 24.082
threshold=-0.054563492063492043 1753.1038194654743 1633.9815714220156 1512.5977345610579 1551.7311482900029 1543.6620075143003 1577.1200262335076 1968.7497122373327 1574.3178484407513 2085.5811397741536 1529.6868735652072 1507.0184793994788 1831.4871510731821 -10.499999999999998 1899.2628717576561
decision_type=2 2 2 2 2 2 2 2 2 2 2 2 2 2 2
left_child=2 3 5 8 14 11 12 -6 -2 -8 -5 -1 -4 -7 -3
right_child=1 4 6 10 7 13 9 -9 -10 -11 -12 -13 -14 -15 -16
leaf_value=-0.0033653342218780209 0.0047122352061543821 0.027421744845507696 -0.02403453573954116 -0.010306768774061371 0.0086486266834066624 0.014077194392942648 -0.0094650124456328883 0.027001090222632355 0.017185932262594142 -0.032334248944130159 0.0021782812218873837 -0.016064921663306097 -0.036586248477587853 0.0011049101826492336 0.038320155022163495
leaf_weight=1023.0403084754944 1614.1767183989286 836.38687193393707 1460.8253204077482 1031.0337718874216 1402.8442720770836 243.49098616838455 1347.6234679371119 536.77598664164543 1723.5595069974661 267.54765179753304 2173.9569769054651 1509.6435145139694 386.54007095098495 846.31249469518661 341.48137320578098
leaf_count=4111 6492 3558 6127 4179 5740 987 5518 2310 7076 1163 8782 6139 1721 3412 1523
internal_value=5.47629e-08 0.00973336 -0.0132698 0.00479079 0.0201036 -0.00643861 -0.0204141 0.013732 0.0111561 -0.0132586 -0.00183542 -0.0109385 -0.0266655 0.00401117 0.0305887
internal_weight=16745.2 9660.22 7085.02 6542.73 3117.49 3622.49 3462.54 1939.62 3337.74 1615.17 3204.99 2532.68 1847.37 1089.8 1177.87
internal_count=68838 39660 29178 26529 13131 14649 14529 8050 13568 6681 12961 10250 7848 4399 5081
is_linear=0
shrinkage=0.0342644


Tree=17
num_leaves=16
num_cat=0
split_feature=15 15 15 37 37 15 43 12 15 5 15 9 33 5 43
split_gain=2308.57 659.87 336.18 186.11 96.5786 86.2236 75.9438 65.054 46.2401 45.1272 41.4911 31.783 21.7406 17.9198 6.672
threshold=0.45683911465939359 0.69396851580278784 0.23386857856081786 1.0000000180025095e-35 1.5000000000000002 0.8817491839678272 -0.24722222222222218 1506.8894118204319 0.34541720263239678 4.0000000000000009 0.15597619991664538 1517.8553746915347 77.500000000000014 4.0000000000000009 -0.099999999999999936
decision_type=2 2 2 2 2 2 2 2 2 2 2 2 2 2 2
left_child=2 3 10 6 8 9 -2 -5 -4 -3 13 -6 -12 -1 -7
right_child=1 5 4 7 11 14 -8 -9 -10 -11 12 -13 -14 -15 -16
leaf_value=0.030837080304923208 -0.016642707636742516 -0.018838329769791502 0.012469660933430507 0.01172849624213595 0.021576734895918073 -0.037763440030756226 -0.0061652343982143481 -0.00058523677505621153 0.0034986352011171008 -0.030574882429809262 0.023770545322187506 0.012915191356736194 -0.024473456875565028 0.042683808836737933 -0.026199367177657942
leaf_weight=641.68223598599434 1066.3226623684168 2086.1275080144405 1070.6102462857962 731.64691495895386 855.71682694554329 460.31713664531708 3432.1812601983547 1613.0380685031414 1834.1769769638777 475.53759633004665 942.17452371120453 1209.6296712458134 10.919746741652487 202.70758348703384 73.312844648957253
leaf_count=2857 4341 8755 4379 2943 3547 2099 13816 6479 7381 2005 4004 4943 46 923 320
internal_value=8.09044e-08 -0.0105102 0.015436 -0.00457071 0.0108406 -0.0236386 -0.00865072 0.00325352 0.00680803 -0.0210204 0.0281378 0.016508 0.0232088 0.0336913 -0.0361909
internal_weight=16706.1 9938.48 6767.62 6843.19 4970.13 3095.3 4498.5 2344.68 2904.79 2561.67 1797.48 2065.35 953.094 844.39 533.63
internal_count=68838 40758 28080 27579 20250 13179 18157 9422 11760 10760 7830 8490 4050 3780 2419
is_linear=0
shrinkage=0.0342644


Tree=18
num_leaves=16
num_cat=0
split_feature=10 10 10 37 10 10 58 10 10 26 10 26 22 28 4
split_gain=2493.08 726.535 302.31 123.416 119.389 58.5299 51.9107 50.8852 47.3527 38.7015 27.3838 24.0704 23.9798 14.1804 9.23701
threshold=57.743626164793689 -136.90616594638377 229.97083774535386 -1.0000000180025095e-35 -271.33364129085868 108.19769600639314 -0.0021112119331157995 -64.041849890848979 376.161344180561 2.7999999999999994 -392.99675165928005 0.59999999999999976 1524.6108225707646 207.00000000000003 1.0000000180025095e-35
decision_type=2 2 2 2 2 2 2 2 2 2 2 2 2 2 2
left_child=1 4 5 6 10 12 -3 -5 13 -7 -1 -6 -2 -4 -10
right_child=2 3 8 7 11 9 -8 -9 14 -11 -12 -13 -14 -15 -16
leaf_value=-0.036935972637847501 -0.013281227324532888 -0.012695989193923047 0.025913462733075467 -0.0060643080983844074 -0.014470025340452896 0.018532274538263109 -0.0035592627900997227 0.0029714241855976499 0.048123081926463619 0.0096508104902300069 -0.026644739116767662 -0.021400890435418918 0.0081396491158090643 -0.012638011591587684 0.035665192581034809
leaf_weight=474.3699187785387 63.605193868279457 1640.709886431694 1305.5092270821333 980.82726942002773 1349.6151612699032 1757.7400334328413 1321.1500463932753 2879.0033389925957 89.094498857855797 864.38538059592247 882.14435815811157 1062.8161567896605 1539.9489731043577 10.996999084949492 439.30594654381275
leaf_count=2168 255 6638 5617 3952 5609 7241 5326 11568 414 3559 3794 4418 6225 47 2007
internal_value=9.82175e-08 -0.0100343 0.0175073 -0.00336202 -0.0221085 0.0124514 -0.00862342 0.000673108 0.029083 0.0156078 -0.0302499 -0.017527 0.00728461 0.0255849 0.0377821
internal_weight=16661.2 10590.6 6070.59 6821.69 3768.95 4225.68 2961.86 3859.83 1844.91 2622.13 1356.51 2412.43 1603.55 1316.51 528.4
internal_count=68838 43473 25365 27484 15989 17280 11964 15520 8085 10800 5962 10027 6480 5664 2421
is_linear=0
shrinkage=0.0342644


Tree=19
num_leaves=16
num_cat=0
split_feature=10 10 10 10 37 10 13 10 10 26 26 58 33 10 4
split_gain=2333.28 683.878 288.098 115.254 115.205 55.6512 49.5551 47.9574 46.2251 34.2845 28.0986 27.5468 13.863 13.7781 9.06991
threshold=57.743626164793689 -136.90616594638377 229.97083774535386 -319.89689457873334 -1.0000000180025095e-35 127.93862521861151 -82.216387651647196 -43.260045545589257 376.161344180561 2.7000000000000015 -9.2999999999999954 0.017305402348924203 -6.4999999999999991 -427.80908388779829 1.0000000180025095e-35
decision_type=2 2 2 2 2 2 2 2 2 2 2 2 2 2 2
left_child=1 3 5 13 6 11 -3 -6 12 -7 -5 -2 -4 -1 -10
right_child=2 4 8 10 7 9 -8 -9 14 -11 -12 -13 -14 -15 -16
leaf_value=-0.03757343017217226 0.0042424057805306318 -0.015685799085666054 0.02958796137638426 -0.0040619711711650996 -0.004475920243939985 0.019139889922838282 -0.0056517464143174692 0.0034966110631007323 0.047343902398702085 0.0097804588752330845 -0.018913164711025703 0.012046595646408562 0.022162887210908592 -0.028727352430533586 0.034892895774152249
leaf_weight=348.77248239517212 1066.7396359294653 790.30170474946499 476.9634248316288 159.97145828604698 1376.872314915061 1391.7168094664812 2169.5541996657848 2482.4409995079041 87.485644683241844 693.04555697739124 2687.5209462046623 1066.5186027884483 830.72078107297421 552.4699079990387 433.74051168560982
leaf_count=1626 4313 3238 2067 665 5544 5772 8726 9976 414 2868 11259 4327 3597 2439 2007
internal_value=1.07554e-07 -0.00971233 0.0169754 -0.0214688 -0.00324813 0.0120471 -0.00833382 0.000650048 0.028337 0.0160326 -0.0180819 0.00814814 0.0248777 -0.0321603 0.0369993
internal_weight=16614.8 10567.9 6046.93 3748.73 6819.17 4218.02 2959.86 3859.31 1828.91 2084.76 2847.49 2133.26 1307.68 901.242 521.226
internal_count=68838 43473 25365 15989 27484 17280 11964 15520 8085 8640 11924 8640 5664 4065 2421
is_linear=0
shrinkage=0.0342644


Tree=20
num_leaves=16
num_cat=0
split_feature=10 10 10 10 10 14 10 20 20 14 58 61 5 5 4
split_gain=2185.24 532.04 363.25 101.914 100.794 84.0226 45.1501 43.2344 42.1567 26.1061 22.4631 22.4481 19.8589 18.0339 8.92763
threshold=28.406358332046242 -148.30671722717008 229.97083774535386 108.19769600639314 -319.89689457873334 0.38461977823558541 376.161344180561 1.0000000180025095e-35 0.45652303788347953 0.39012427861920213 0.032683297740295152 0.0098418754713931519 4.0000000000000009 4.0000000000000009 1.0000000180025095e-35
decision_type=2 2 2 2 2 2 2 2 2 2 2 2 2 2 2
left_child=1 4 3 8 13 10 12 -7 -2 -6 -3 -5 -4 -1 -8
right_child=2 5 6 11 9 7 14 -9 -10 -11 -12 -13 -14 -15 -16
leaf_value=-0.028253490148115051 0.025033654066974366 -0.01303722641759969 0.021869392004622557 0.010755871643271013 -0.019717704082550237 0.010661373000005005 0.046608472478640015 -0.003045460728607753 0.0041942574809636325 -0.010955828822493029 -0.0019065894167370455 0.017269173253000401 0.032072807166704631 -0.039146432141366233 0.034146172717628001
leaf_weight=634.22854308784008 119.51194682717323 1359.6135012805462 1003.8630612492561 1048.8996814340353 2072.7141835689545 288.98958225548267 85.849456593394279 4103.3225922137499 2554.9801122993231 500.70697060227394 254.59618167579174 1560.0456343740225 294.92654496431351 257.21681453287601 428.13654197752476
leaf_count=2889 487 5563 4372 4322 8805 1159 414 16489 10313 2035 1037 6478 1292 1176 2007
internal_value=1.90276e-07 -0.0107706 0.0143773 0.00983384 -0.0214637 -0.00460085 0.0276148 -0.00214167 0.00512871 -0.0180163 -0.011287 0.0146539 0.024193 -0.0314062 0.0362445
internal_weight=16567.6 9471.39 7096.21 5283.44 3464.87 6006.52 1812.78 4392.31 2674.49 2573.42 1614.21 2608.95 1298.79 891.445 513.986
internal_count=68838 39153 29685 21600 14905 24248 8085 17648 10800 10840 6600 10800 5664 4065 2421
is_linear=0
shrinkage=0.0342644


Tree=21
num_leaves=16
num_cat=0
split_feature=10 10 10 10 10 10 56 10 26 19 22 10 26 5 5
split_gain=2048.09 606.32 261.119 107.833 92.8322 49.3204 45.1419 44.2248 32.3489 32.0224 30.4608 25.7417 22.625 18.1693 9.62219
threshold=57.743626164793689 -136.90616594638377 229.97083774535386 -271.33364129085868 -56.410912750032359 127.93862521861151 0.66519123047320561 343.55439132842531 2.7000000000000015 0.45846977969200364 1524.6108225707646 -392.99675165928005 0.59999999999999976 4.0000000000000009 4.0000000000000009
decision_type=2 2 2 2 2 2 2 2 2 2 2 2 2 2 2
left_child=1 3 5 11 9 10 -6 13 -7 -3 -2 -1 -5 -4 -9
right_child=2 4 7 12 6 8 -8 14 -10 -11 -12 -13 -14 -15 -16
leaf_value=-0.034754657250726802 -0.014501017008993717 -0.02724007674861394 0.020294659119125522 -0.012929677386145335 -0.0053400614996772008 0.01809665761181423 0.0022017680797981956 0.031114752982511922 0.0089822498572688023 -0.0076167727789731498 0.0083899888398942073 -0.024614387759505776 -0.019683599895984276 0.030917325251780453 0.040292808996074937
leaf_weight=456.39462357759476 70.320047333836555 102.36980743706226 863.67793354392052 1336.5461717396975 1337.515678614378 1382.9262325018644 3071.3201596438885 486.57026724517345 689.96356552839279 2302.0365584790707 2059.4105075448751 863.92045103013515 1050.9492039829493 247.71882602572441 198.5765358954668
leaf_count=2168 282 418 3768 5609 5379 5772 12354 2275 2868 9333 8358 3794 4418 1089 953
internal_value=2.67678e-07 -0.00910937 0.0159778 -0.02026 -0.00303987 0.0113004 -8.42539e-05 0.0269147 0.0150671 -0.00845584 0.00763012 -0.0281261 -0.0159063 0.0226701 0.0337874
internal_weight=16520.2 10521.1 5999.16 3707.81 6813.24 4202.62 4408.84 1796.54 2072.89 2404.41 2129.73 1320.32 2387.5 1111.4 685.147
internal_count=68838 43473 25365 15989 27484 17280 17733 8085 8640 9751 8640 5962 10027 4857 3228
is_linear=0
shrinkage=0.0342644


Tree=22
num_leaves=16
num_cat=0
split_feature=10 10 10 10 37 37 10 15 12 22 26 37 26 5 5
split_gain=1920.3 417.312 382.764 99.7478 95.7832 70.6532 62.2535 47.1218 42.4388 32.9731 30.7182 30.4494 30.4446 26.0938 14.2119
threshold=9.660486920478208 -185.97031859017224 154.6860907174503 294.96612882058065 -1.0000000180025095e-35 1.0000000180025095e-35 -336.6943640492413 0.61622264169035879 1500.0019727249344 1508.7722297756484 -2.7000000000000006 -1.0000000180025095e-35 0.49999999999999828 4.0000000000000009 4.0000000000000009
decision_type=2 2 2 2 2 2 2 2 2 2 2 2 2 2 2
left_child=1 6 5 11 7 9 14 -3 -6 -2 -7 -4 -8 -5 -1
right_child=2 4 3 13 8 10 12 -9 -10 -11 -12 -13 -14 -15 -16
leaf_value=-0.027818207172705816 -0.014132976381436336 -0.0070253587536035127 0.0094154278247468304 0.026848229855227727 0.0046714348352742347 0.016229132679252366 -0.015134245117372713 -0.015765915514002998 -0.004380020156515666 0.0027945142144665145 0.0076217795383955204 0.019388666179567856 -0.02403836974279671 0.039156347035512212 -0.038292963248156946
leaf_weight=526.90071184933186 144.15071830153465 1826.2449942529202 460.7377282679081 752.46434056758881 834.7941262871027 700.43105997145176 996.92223514616489 1206.4943247884512 2234.5525975525379 2126.2013472169638 1621.8246911764145 1698.0129586458206 837.03915007412434 283.0230868011713 223.50353620946407
leaf_count=2469 578 7372 1942 3493 3348 2854 4268 5032 9049 8577 6621 7238 3591 1352 1054
internal_value=3.11664e-07 -0.0110755 0.0123568 0.021467 -0.00618605 0.00601872 -0.022617 -0.0105054 -0.00191542 0.00171595 0.0102216 0.0172641 -0.0192029 0.0302207 -0.0309495
internal_weight=16473.3 8686.45 7786.85 3194.24 6102.09 4592.61 2584.37 3032.74 3069.35 2270.35 2322.26 2158.75 1833.96 1035.49 750.404
internal_count=68838 36183 32655 14025 24801 18630 11382 12404 12397 9155 9475 9180 7859 4845 3523
is_linear=0
shrinkage=0.0342644


Tree=23
num_leaves=16
num_cat=0
split_feature=10 10 10 10 14 10 33 10 33 33 10 33 25 5 5
split_gain=1801.99 538.976 237.913 106.001 75.5539 43.7977 43.5775 43.0876 37.1197 31.1167 30.6825 24.7508 23.4371 17.6889 7.94384
threshold=57.743626164793689 -131.19884146903595 229.97083774535386 -249.70663462693537 0.43951951884706192 108.19769600639314 -1.4999999999999998 376.161344180561 19.500000000000004 -92.499999999999986 -392.99675165928005 14.500000000000002 31.050000000000004 4.0000000000000009 4.0000000000000009
decision_type=2 2 2 2 2 2 2 2 2 2 2 2 2 2 2
left_child=1 3 5 10 8 12 -6 13 -3 -5 -1 -7 -2 -4 -9
right_child=2 4 7 9 6 11 -8 14 -10 -11 -12 -13 -14 -15 -16
leaf_value=-0.033408451438378332 0.004546408421185197 -0.0056325903299452073 0.020050543092419972 0.036465584675177548 0.005655861675128551 0.014365155526367876 -0.0020867408896139768 0.031274707231610216 -0.017193663898433187 -0.01442410748975342 -0.022679702711441027 0.0021204876051103207 0.01704774005355732 0.029811025428712602 0.041041633839370983
leaf_weight=444.31390498578548 1395.6436070501804 2069.8533636927605 984.77472700178623 14.100956529378889 1188.3097971528769 2375.9008006006479 3028.1880384683609 344.41325858235359 388.38115467131138 2237.0553538054228 1104.0018727779388 212.8492996096611 202.37145304679871 286.6456420570612 148.89762850105762
leaf_count=2168 5660 8410 4372 59 4780 9922 12163 1671 1589 9426 4878 878 820 1292 750
internal_value=3.26717e-07 -0.00855396 0.0150567 -0.0188564 -0.00268821 0.0106055 9.32652e-05 0.0256123 -0.00746265 -0.0141015 -0.0257641 0.0133617 0.00613496 0.0222579 0.0342402
internal_weight=16425.7 10474.2 5951.5 3799.47 6674.73 4186.77 4216.5 1764.73 2458.23 2251.16 1548.32 2588.75 1598.02 1271.42 493.311
internal_count=68838 43473 25365 16531 26942 17280 16943 8085 9999 9485 7046 10800 6480 5664 2421
is_linear=0
shrinkage=0.0342644


Tree=24
num_leaves=16
num_cat=0
split_feature=10 10 10 10 37 37 10 26 15 11 26 64 5 5 4
split_gain=1686.75 507.793 226.919 95.8462 94.9892 50.1482 42.1178 41.5806 38.391 33.1126 26.2331 25.695 17.3356 16.9311 9.07081
threshold=57.743626164793689 -136.90616594638377 229.97083774535386 -319.89689457873334 -1.0000000180025095e-35 1.0000000180025095e-35 376.161344180561 -3.7999999999999985 0.61622264169035879 1500.0000359591556 -9.2999999999999954 10.321247849671012 4.0000000000000009 4.0000000000000009 1.0000000180025095e-35
decision_type=2 2 2 2 2 2 2 2 2 2 2 2 2 2 2
left_child=1 3 5 12 8 9 13 -6 -3 -2 -5 -7 -1 -4 -8
right_child=2 4 6 10 7 11 14 -9 -10 -11 -12 -13 -14 -15 -16
leaf_value=-0.02551946764419865 -0.0058735777679774391 -0.0050222522175496533 0.019487134384578594 -0.001890453984875294 0.006990546305165911 0.010967305793603633 0.044375710906341521 -0.0012504445133954259 -0.013888549735130866 0.0077289597979790852 -0.01633428133132598 0.018494676961996446 -0.036453239216267343 0.029081128952689109 0.031420166652834425
leaf_weight=608.48605445027351 243.39204785227776 2166.7147437781096 978.63590309023857 157.82750684022903 955.40718998014927 1627.5293030589819 80.095797821879387 2899.4786284565926 782.68465913832188 1507.7484655082226 2635.9618564248085 800.32799419760704 244.43136867880821 283.8211654573679 405.91806019842625
leaf_count=2889 978 8727 4372 665 3847 6767 414 11673 3237 6188 11259 3347 1176 1292 2007
internal_value=4.32992e-07 -0.00828013 0.0146017 -0.0185974 -0.00274938 0.0102617 0.0249697 0.000789793 -0.00737803 0.00583341 -0.0155214 0.0134522 -0.028663 0.0216509 0.033573
internal_weight=16378.5 10451 5927.47 3646.71 6804.29 4179 1748.47 3854.89 2949.4 1751.14 2793.79 2427.86 852.917 1262.46 486.014
internal_count=68838 43473 25365 15989 27484 17280 8085 15520 11964 7166 11924 10114 4065 5664 2421
is_linear=0
shrinkage=0.0342644


Tree=25
num_leaves=16
num_cat=0
split_feature=10 10 10 10 22 10 26 20 26 26 5 5 43 1 6
split_gain=1587.61 457.218 244.626 114.064 59.7128 53.2604 51.7405 43.411 44.1376 32.0359 30.3169 26.8799 21.5047 9.13951 9.12471
threshold=-31.208324095466875 127.93862521861151 -192.61004514227054 275.61274024630194 1519.8748848241421 -392.99675165928005 -2.850000000000001 1.0000000180025095e-35 0.59999999999999976 2.7999999999999994 4.0000000000000009 4.0000000000000009 -0.056349206349206295 238.50000000000003 1775.6231955858771
decision_type=2 2 2 2 2 2 2 2 2 2 2 2 2 2 2
left_child=2 4 5 9 12 14 -6 13 -9 -3 -5 -7 -2 -4 -1
right_child=1 3 7 10 6 11 -8 8 -10 -11 -12 -13 -14 -15 -16
leaf_value=-0.032918122559324442 -0.014912750280397038 0.017065916638531662 -0.016851680883263886 0.023966566988524497 0.0097956855835906412 -0.016736963835729507 0.0020287675896044975 -0.0051965932006774705 -0.01207468039608634 0.0089503760106685714 0.036563617171871482 -0.026539256420387555 -0.0017760247712535881 0.021305274616984525 0
leaf_weight=422.52272237837315 248.10528655350208 1745.0982518494129 7.962912142276763 872.30757084488869 1403.9694212079048 1550.7547455877066 3576.3170697540045 2541.7889754623175 1934.0926572084427 857.1978881508112 307.33162541687489 422.15093490481377 360.80739395320415 71.366547629237175 9.9341050088405591
leaf_count=2119 998 7437 32 4133 5678 6809 14470 10426 7936 3633 1522 1863 1447 286 49
internal_value=4.70969e-07 0.00920815 -0.0123947 0.0184094 0.00298057 -0.0212364 0.00422003 -0.00772401 -0.00817064 0.014396 0.0272558 -0.0188388 -0.00714282 0.0173665 -0.0321549
internal_weight=16331.7 9371.13 6960.57 3781.94 5589.2 2405.36 4980.29 4555.21 4475.88 2602.3 1179.64 1972.91 608.913 79.3295 432.457
internal_count=68838 39318 29520 16725 22593 10840 20148 18680 18362 11070 5655 8672 2445 318 2168
is_linear=0
shrinkage=0.0342644


Tree=26
num_leaves=16
num_cat=0
split_feature=10 10 10 10 15 10 1 10 64 0 5 61 5 5 4
split_gain=1487.95 334.951 309.135 93.7279 76.8093 55.1466 41.3372 41.0397 40.2916 27.1447 21.6666 21.016 15.7319 13.4525 9.04274
threshold=9.660486920478208 -185.97031859017224 229.97083774535386 108.19769600639314 0.61622264169035879 -336.6943640492413 752.50000000000011 376.161344180561 -21.650272556726531 824.50000000000011 4.0000000000000009 0.0098418754713931519 4.0000000000000009 4.0000000000000009 1.0000000180025095e-35
decision_type=2 2 2 2 2 2 2 2 2 2 2 2 2 2 2
left_child=1 5 3 6 8 13 -2 12 -3 -6 -7 -5 -4 -1 -9
right_child=2 4 7 11 9 10 -8 14 -10 -11 -12 -13 -14 -15 -16
leaf_value=-0.025275437798318829 0.0062062538960546542 -0.012492896810535977 0.018388536943857992 0.008415446980964374 -0.013299718440150708 -0.015178501127779945 -0.0017952497067533493 0.043383923678193603 -0.0014081085554489897 -0.0048857002665489736 -0.024554954689566571 0.014760636624126015 0.027724343363743343 -0.035729436716788993 0.03022718693013399
leaf_weight=504.57215921580791 2268.6815423667431 432.62978938221931 966.10784055292606 1035.1354073286057 1466.3422165811062 1431.246519729495 1136.2458875179291 77.151410058140755 3526.5143106132746 655.01355999708176 367.92699544131756 1533.9906077086926 278.14387494325638 211.42553654313087 395.49085938930511
leaf_count=2469 9175 1748 4372 4322 6126 6247 4595 414 14202 2725 1612 6478 1292 1054 2007
internal_value=4.80789e-07 -0.00979551 0.0109499 0.00726518 -0.00544339 -0.0203135 0.00353357 0.0237663 -0.00262156 -0.0107058 -0.0171008 0.0122074 0.0204824 -0.0283744 0.0323931
internal_weight=16286.6 8595.67 7690.95 5974.05 6080.5 2515.17 3404.93 1716.89 3959.14 2121.36 1799.17 2569.13 1244.25 715.998 472.642
internal_count=68838 36183 32655 24570 24801 11382 13770 8085 15950 8851 7859 10800 5664 3523 2421
is_linear=0
shrinkage=0.0342644


Tree=27
num_leaves=16
num_cat=0
split_feature=10 10 10 10 37 13 56 26 37 5 16 10 7 26 61
split_gain=1395.14 405.823 223.815 101.547 72.5311 66.0917 42.2273 41.3646 31.6387 29.2146 29.008 28.1353 25.4615 15.7156 7.76286
threshold=-31.208324095466875 133.08431779803314 -249.70663462693537 275.61274024630194 1.5000000000000002 -82.216387651647196 0.66519123047320561 -10.499999999999996 -1.0000000180025095e-35 4.0000000000000009 -1.8958681775384318 -392.99675165928005 1506.0021383270168 -10.499999999999996 -0.040385278774516288
decision_type=2 2 2 2 2 2 2 2 2 2 2 2 2 2 2
left_child=2 4 11 8 6 7 -2 -4 -3 -5 -7 14 -6 -13 -1
right_child=1 3 5 9 12 10 -8 -9 -10 -11 -12 13 -14 -15 -16
leaf_value=-0.034287514621176692 -0.0054306463002970042 0.0064048577644399782 0.0073210616799125649 0.022791978740917412 0.01305887259368555 -0.0035884264801918074 0.0025355767899229303 -0.013059503346833928 0.015784292510344102 0.035327001951505378 -0.017517255563665644 0.0012626054606870486 0.004976162379277933 -0.021217291692893919 -0.024098416280445324
leaf_weight=281.98017543554306 1090.2695034146309 546.67301937937737 121.81452159583569 855.8597739636898 815.14373344182968 2483.9568115919828 2755.0949356853962 2625.8058370947838 1907.8291644901037 298.20038230717182 189.35881009697914 37.094032689929008 1054.8241414874792 1038.0225602090359 138.60232754051685
leaf_count=1464 4389 2312 508 4133 3348 10042 11119 11153 8218 1522 771 166 4277 4712 704
internal_value=4.65522e-07 0.0086507 -0.0116591 0.0176475 0.00296874 -0.00841904 0.000274686 -0.0121528 0.0136988 0.0260384 -0.00457827 -0.0233966 0.00850413 -0.0204337 -0.0309502
internal_weight=16240.5 9323.89 6916.64 3608.56 5715.33 5420.94 3845.36 2747.62 2454.5 1154.06 2673.32 1495.7 1869.97 1075.12 420.583
internal_count=68838 39318 29520 16185 23133 22474 15508 11661 10530 5655 10813 7046 7625 4878 2168
is_linear=0
shrinkage=0.0342644


Tree=28
num_leaves=16
num_cat=0
split_feature=10 10 10 37 10 37 10 20 33 20 11 26 10 36 4
split_gain=1310.99 404.794 187.062 83.5407 82.3858 43.7229 39.9939 37.9207 34.9429 30.9753 29.2264 25.861 14.998 14.6651 9.03986
threshold=57.743626164793689 -136.90616594638377 229.97083774535386 -1.0000000180025095e-35 -311.68076338786187 1.0000000180025095e-35 376.161344180561 0.45652303788347953 98.500000000000014 0.77876725406675729 1500.0000359591556 -9.2999999999999954 -427.80908388779829 -1.0000000180025095e-35 1.0000000180025095e-35
decision_type=2 2 2 2 2 2 2 2 2 2 2 2 2 2 2
left_child=1 4 5 8 12 10 13 -5 -3 -7 -2 -6 -1 -4 -8
right_child=2 3 6 7 11 9 14 -9 -10 -11 -12 -13 -14 -15 -16
leaf_value=-0.031966149912842613 -0.0060630615996638045 -0.0055151326065343963 0.011579171525849837 0.011648212463610755 0 0.026502253789995246 0.042477017765724247 -0.0001599918768842886 -0.018077449104050184 0.011017642543768552 0.0067265160657345099 -0.014507913248128992 -0.022451632467951847 0.021203032685564512 0.029091683481535912
leaf_weight=307.51967963576317 243.1775458753109 2651.821123868227 234.25364013016224 351.21410715579987 152.49529398977757 163.67648762464523 74.239314213395119 3499.8192400932312 289.11973963677883 2241.6512887328863 1499.9049555957317 2540.8602287620306 567.35016345977783 991.96074129641056 385.25937260687351
leaf_count=1626 978 10785 1079 1413 646 692 414 14107 1179 9422 6188 11007 2710 4585 2007
internal_value=5.08936e-07 -0.0073148 0.0129925 -0.0024042 -0.0166595 0.0090779 0.0226208 0.000914678 -0.00675305 0.0120749 0.0049373 -0.0136854 -0.0258059 0.0193715 0.0312731
internal_weight=16194.3 10360.2 5834.12 6791.97 3568.23 4148.41 1685.71 3851.03 2940.94 2405.33 1743.08 2693.36 874.87 1226.21 459.499
internal_count=68838 43473 25365 27484 15989 17280 8085 15520 11964 10114 7166 11653 4336 5664 2421
is_linear=0
shrinkage=0.0342644


Tree=29
num_leaves=16
num_cat=0
split_feature=10 10 10 10 33 58 10 15 25 33 33 19 61 33 4
split_gain=1230.5 304.755 248.422 81.4269 69.6825 57.0844 50.156 44.4669 38.0412 34.0895 29.1364 26.7419 19.4426 9.19138 9.02233
threshold=-6.776448202343885 154.6860907174503 -185.97031859017224 343.55439132842531 -10.499999999999998 0.017305402348924203 -392.99675165928005 0.61914525603835213 26.450000000000003 20.500000000000004 20.500000000000004 1.0000000180025095e-35 -0.024321175446701596 -72.499999999999986 1.0000000180025095e-35
decision_type=2 2 2 2 2 2 2 2 2 2 2 2 2 2 2
left_child=2 5 6 10 11 8 13 -6 -2 -7 -3 -4 -8 -1 -5
right_child=1 3 4 14 7 9 12 -9 -10 -11 -12 -13 -14 -15 -16
leaf_value=0.012404348036645918 -0.0029004686687997472 0.015966307461344486 -0.025322812558631263 0.038590842089942276 -0.0045849702444265266 0.0093610140645242965 -0.019375597710269907 -0.011564646336773253 0.0050524582779134424 -0.0039967974656088976 0.0010784113441847248 0.0049959718618372536 -0.012559385501406707 -0.030382119477172388 0.02703628106793235
leaf_weight=5.6935505270957938 1492.8893881887197 2268.8200234025717 35.661037757992744 98.908155739307404 2794.4097413122654 2203.1035754829645 1212.6451863646507 1745.0511076450348 1339.0607644170523 248.77093209326267 166.93547955155373 772.01158235967159 843.48200809955597 402.80174225568771 518.84560430049896
leaf_count=30 6055 10065 145 546 11291 9017 5479 7349 5435 1006 732 3133 3735 2138 2682
internal_value=5.69301e-07 0.00915636 -0.00977012 0.0177747 -0.00561944 0.00417422 -0.0187718 -0.00726998 0.000856954 0.00800219 0.0149495 0.00364664 -0.0165836 -0.0297647 0.0289002
internal_weight=16149.1 8337.33 7811.76 3053.51 5347.13 5283.82 2464.62 4539.46 2831.95 2451.87 2435.76 807.673 2056.13 408.495 617.754
internal_count=68838 35538 33300 14025 21918 21513 11382 18640 11490 10023 10797 3278 9214 2168 3228
is_linear=0
shrinkage=0.0342644


Tree=30
num_leaves=16
num_cat=0
split_feature=10 10 10 10 37 33 58 15 20 26 15 5 5 33 6
split_gain=1155.98 398.373 155.541 95.4433 75.3746 50.9377 46.2859 37.4677 33.3757 30.9106 26.6013 23.6795 14.9757 14.7174 7.24294
threshold=-56.410912750032359 127.93862521861151 -249.70663462693537 294.96612882058065 1.0000000180025095e-35 -25.499999999999996 0.0047335020347633507 0.62179584286003164 0.77876725406675729 2.7999999999999994 0.90641802190525633 4.0000000000000009 4.0000000000000009 -146.49999999999997 1751.17376992596
decision_type=2 2 2 2 2 2 2 2 2 2 2 2 2 2 2
left_child=2 4 10 9 6 13 -2 -7 -6 -3 12 -5 -1 -4 -12
right_child=1 3 5 11 8 7 -8 -9 -10 -11 14 -13 -14 -15 -16
leaf_value=-0.017224863796416922 -0.0048956899887107426 0.015312371016373305 0.025515446592311614 0.022111768676860016 0.018139752271747189 -0.0061484587582018623 0.0027914318779163191 -0.012660845692641191 0.004961758525574669 0.0075247744572466907 -0.032372175633995269 0.034487145631498642 -0.026275986075751198 0.0025678521120479146 -0.0038109071889235037
leaf_weight=882.72405438125134 1973.8796083331108 1834.5395946055651 39.298774197697639 694.09372563660145 248.07761666178703 1882.015832901001 1720.444228053093 2330.3656684309244 2571.2511242777109 896.0725262016058 272.02267953753471 251.08920304477215 290.75829334557056 206.57290582358837 11.554967120289801
leaf_count=4112 7960 8004 160 3493 1018 7657 6940 10021 10455 3876 1488 1352 1385 856 61
internal_value=5.59645e-07 0.00699557 -0.0120473 0.0160147 0.00190456 -0.00886762 -0.00131347 -0.00975328 0.00612437 0.01276 -0.0217703 0.0254084 -0.0194748 0.00627073 -0.0312388
internal_weight=16104.8 10189.4 5915.31 3675.8 6513.65 4458.25 3694.32 4212.38 2819.33 2730.61 1457.06 945.183 1173.48 245.872 283.578
internal_count=68838 43098 25740 16725 26373 18694 14900 17678 11473 11880 7046 4845 5497 1016 1549
is_linear=0
shrinkage=0.0342644


Tree=31
num_leaves=16
num_cat=0
split_feature=10 10 10 10 58 33 33 26 17 5 26 15 14 10 19
split_gain=1088.11 361.147 152.116 104.581 52.8607 39.5558 39.2554 34.2805 30.1265 28.3122 28.109 26.041 22.7756 18.5236 2.61455
threshold=67.698479601044724 -95.089689690400604 275.61274024630194 -249.70663462693537 0.0047335020347633507 -1.0000000180025095e-35 -92.499999999999986 -2.6999999999999971 -1.0000000180025095e-35 4.0000000000000009 2.7999999999999994 0.90641802190525633 0.80475514238206525 422.41370497797851 15.599690130840274
decision_type=2 2 2 2 2 2 2 2 2 2 2 2 2 2 2
left_child=1 3 5 11 7 12 -5 -3 -6 13 -7 -1 -2 -4 -11
right_child=2 4 9 6 8 10 -8 -9 -10 14 -12 -13 -14 -15 -16
leaf_value=-0.018949056366599527 0.012794428413323528 0.0012241214351905729 0.017648713662118561 0.031770281435630258 0.001854621642251991 0.0094208424006007527 -0.010440681509178892 -0.0061249524171580402 0.01703498319202151 0.033899870029455485 0.0019296194032320548 -0.030673002788683755 0.029657937648572122 0.029737828720417483 0.014181091628798069
leaf_weight=1164.8924089223146 1489.965794429183 1114.2309126704931 624.2248443365097 25.980477407574654 2477.3692722767591 1877.1524643748999 3160.6935367286205 2239.2671461999416 163.86177699267864 271.88335275650024 860.94566912949085 279.00444377958775 101.32084165513515 199.5905691832304 9.7023504674434644
leaf_count=5497 6325 4508 3051 107 10002 7945 13443 9054 663 1472 3622 1549 468 1082 50
internal_value=5.84712e-07 -0.00637749 0.0124717 -0.0135652 -0.000823995 0.00957174 -0.0100938 -0.00368058 0.00279967 0.0238216 0.00706851 -0.0212204 0.0138736 0.0205881 0.033251
internal_weight=16060.1 10625.3 5434.79 4630.57 5994.73 4329.38 3186.67 3353.5 2641.23 1105.4 2738.1 1443.9 1591.29 823.815 281.586
internal_count=68838 44823 24015 20596 24227 18360 13550 13562 10665 5655 11567 7046 6793 4133 1522
is_linear=0
shrinkage=0.0342644


Tree=32
num_leaves=16
num_cat=0
split_feature=10 14 10 37 10 26 37 58 26 57 57 10 51 33 27
split_gain=1018.53 323.044 157.716 90.4757 54.3795 51.051 50.9057 42.3984 41.6335 34.5124 25.4639 21.3126 13.9986 7.61489 4.70485
threshold=57.743626164793689 0.30312100696844585 275.61274024630194 -1.0000000180025095e-35 -392.99675165928005 -9.5499999999999989 2.5000000000000004 -0.0021112119331157995 4.5000000000000027 0.6925083892329712 0.71483259424566459 422.41370497797851 0.18982639422647007 -72.499999999999986 195.00000000000003
decision_type=2 2 2 2 2 2 2 2 2 2 2 2 2 2 2
left_child=1 4 6 7 13 -6 8 -3 -2 -5 -8 12 -4 -1 -13
right_child=2 3 11 9 5 -7 10 -9 -10 -11 -12 14 -14 -15 -16
leaf_value=0.010556089495324574 0.0083760587764222308 -0.010109905405837028 0.021011772107620091 0.0041831682246316537 0.0049171804322401839 -0.015907517444461925 0.016839929812051787 -0.0024591197193443832 -0.0011580472816877609 -0.0021765392480382287 0.0075581847691343334 0.032918877859097695 -0.012565126865555913 -0.029461917851690764 0.017824866905811886
leaf_weight=5.3502774387598029 2374.634123146534 1990.8153065145016 793.13714031875134 1828.3065013438463 146.65435098111629 2235.7275529205799 1063.1812952756882 1490.6854171603918 693.18253707885742 2214.6872723847628 521.27143514156342 255.65191903710365 14.527055338025091 359.89256370067596 29.711798503994942
leaf_count=29 9971 8232 3969 7376 636 10135 4605 6085 2899 8969 2235 1446 72 2011 168
internal_value=7.75592e-07 -0.00646059 0.0115547 -0.00278738 -0.0165167 -0.014622 0.00879995 -0.00683652 0.00621899 0.00069729 0.0137918 0.0232718 0.0203972 -0.0288521 0.0313775
internal_weight=16017.4 10272.1 5745.3 7524.49 2747.62 2382.38 4652.27 3481.5 3067.82 4042.99 1584.45 1093.03 807.664 365.243 285.364
internal_count=68838 43473 25365 30662 12811 10771 19710 14317 12870 16345 6840 5655 4041 2040 1614
is_linear=0
shrinkage=0.0342644


Tree=33
num_leaves=16
num_cat=0
split_feature=14 14 14 37 15 37 64 5 25 7 20 5 37 37 14
split_gain=932.025 280.363 165.203 93.8896 55.0107 51.9412 43.9489 38.3573 38.051 35.961 28.3691 24.4901 17.4612 7.54252 6.11281
threshold=0.54316088534060658 0.30312100696844585 0.78940506502097252 1.0000000180025095e-35 0.8817491839678272 1.5000000000000002 -15.558757807816873 4.0000000000000009 28.250000000000004 1504.8099693593656 1.0000000180025095e-35 4.0000000000000009 -1.0000000180025095e-35 -2.4999999999999996 0.85781153986953962
decision_type=2 2 2 2 2 2 2 2 2 2 2 2 2 2 2
left_child=1 4 5 6 7 8 -3 -1 -2 -5 -7 12 -4 -6 -13
right_child=2 3 11 9 13 10 -8 -9 -10 -11 -12 14 -14 -15 -16
leaf_value=-0.011776435991787345 0.0019221668465686684 -0.012732583769155219 0.010913171864330008 0.0089701314856927665 -0.032221623780700509 0.027157181082680198 -0.0042343525308035472 -0.023183973909613638 0.010363414673647016 -0.00027087883015065298 0.010445019363251281 0.024867655541860215 0.021297215285018312 -0.022950232886033022 0.035417255945255827
leaf_weight=1903.0978983342648 2102.8342083394527 895.48449495434761 260.790571808815 710.2752171009779 196.41852530837059 127.59552629292011 3569.1882294565439 425.71868766844273 895.47818265855312 1621.1380963176489 2004.3130102753639 137.73149110376835 743.87158676981926 242.17774426937103 138.91161227226257
leaf_count=8567 8699 3705 1278 2897 1089 563 14619 1974 3716 6577 8622 688 3704 1330 810
internal_value=8.1398e-07 -0.00677519 0.0101093 -0.00302991 -0.0159696 0.00735802 -0.00594078 -0.0138655 0.00444611 0.00254074 0.0114493 0.0211185 0.0186103 -0.0271219 0.0301961
internal_weight=15975 9563.5 6411.53 6796.09 2767.41 5130.22 4464.67 2328.82 2998.31 2331.41 2131.91 1281.31 1004.66 438.596 276.643
internal_count=68838 40758 28080 27798 12960 21600 18324 10541 12415 9474 9185 6480 4982 2419 1498
is_linear=0
shrinkage=0.0342644


Tree=34
num_leaves=16
num_cat=0
split_feature=14 14 14 37 33 15 23 26 33 26 22 5 26 26 14
split_gain=871.864 264.282 157.214 87.6335 54.5975 53.1958 42.2431 41.1074 38.8503 34.5579 24.7328 23.7929 23.468 9.04784 6.10387
threshold=0.54316088534060658 0.30312100696844585 0.78940506502097252 1.0000000180025095e-35 -6.4999999999999991 0.8817491839678272 1517.5016636788805 -0.99999999999999811 98.500000000000014 2.7999999999999994 1508.7722297756484 4.0000000000000009 1.9000000000000004 -5.5499999999999998 0.85781153986953962
decision_type=2 2 2 2 2 2 2 2 2 2 2 2 2 2 2
left_child=1 5 4 8 10 7 -5 -1 -3 -6 -2 12 -4 -7 -13
right_child=2 3 11 6 9 13 -8 -9 -10 -11 -12 14 -14 -15 -16
leaf_value=-0.0087080253397577075 -0.018311562754450155 -0.0046530250785129443 0.022461413778446571 0.013944786762868634 0.0070833183716448624 -0.016582967930965229 0.00059775765792793346 -0.017861596420587596 -0.015169348900784987 -0.00017505749643184949 0.012781359006687421 0.024278720617369659 0.011684991413411438 -0.029122347266764499 0.034894496369893425
leaf_weight=1117.2390207797289 30.37063255906105 4000.5447854250669 594.28725264966488 323.55508150160313 2299.3760025501251 88.638621047139168 2007.2040391415358 1200.8639691025019 460.9520653039217 1154.4886472970247 1638.0908066630363 136.26440890133381 402.41871744394302 343.81519310176373 136.20862692594528
leaf_count=5008 122 16418 2995 1325 9667 487 8149 5533 1906 4792 7019 688 1987 1932 810
internal_value=8.34206e-07 -0.00655802 0.00979486 -0.00292784 0.00711735 -0.0155193 0.00245429 -0.0134536 -0.00574148 0.00465464 0.0122102 0.0205943 0.0181191 -0.0265721 0.0296172
internal_weight=15934.3 9542.81 6391.51 6792.26 5122.33 2750.56 2330.76 2318.1 4461.5 3453.86 1668.46 1269.18 996.706 432.454 272.473
internal_count=68838 40758 28080 27798 21600 12960 9474 10541 18324 14459 7141 6480 4982 2419 1498
is_linear=0
shrinkage=0.0342644


Tree=35
num_leaves=16
num_cat=0
split_feature=13 13 13 15 23 33 26 26 5 22 12 41 33 26 25
split_gain=819.492 295.69 115.868 76.288 62.4788 61.1668 60.4056 59.0879 44.4869 44.1428 26.8336 15.7853 14.0166 8.78593 8.29766
threshold=57.855071074622636 -82.216387651647196 265.03882586192429 0.8817491839678272 1517.5016636788805 42.500000000000007 -0.29999999999999888 2.9000000000000008 4.0000000000000009 1542.3683421489632 1515.439876874424 0.78888888888888908 -1.0000000180025095e-35 -5.5499999999999998 19.150000000000002
decision_type=2 2 2 2 2 2 2 2 2 2 2 2 2 2 2
left_child=1 3 7 6 9 -6 -1 8 -2 -3 -9 12 -4 -5 -13
right_child=2 4 11 13 5 -7 -8 10 -10 -11 -12 14 -14 -15 -16
leaf_value=-0.0067517805641792586 0.0097621063183946557 0.0010948583870111885 0.025585864941104632 -0.016153042189905729 -0.00091207288566075404 -0.013554055124778511 -0.015231700196542547 0.007406054276975633 0.021245438817498016 0.016291403309655807 -0.0019116429457158334 -0.011456924510424805 0.014164436041032335 -0.028573265387739546 0.028644025792732151
leaf_weight=2091.429568707943 2357.0626916885376 527.49555972218513 209.87185017764568 87.892930567264557 4886.0980632007122 495.11472323536873 1875.5726684778929 806.78152319788933 478.29100221395493 392.30728602409363 657.37747827172279 5.8536569923162451 332.14028106629848 338.50778116285801 352.74290783703327
leaf_count=9131 10135 2122 1115 487 19868 2028 8364 3468 2120 1623 2754 32 1702 1932 1957
internal_value=8.08819e-07 -0.0054239 0.0111588 -0.0122472 -0.000664956 -0.00207684 -0.0107632 0.00881458 0.0117023 0.00758574 0.00321671 0.0223403 0.0186028 -0.0260333 0.0279654
internal_weight=15894.5 10694.4 5200.12 4393.4 6301.02 5381.21 3967 4299.51 2835.35 919.803 1464.16 900.609 542.012 426.401 358.597
internal_count=68838 45555 23283 19914 25641 21896 17495 18477 12255 3745 6222 4806 2817 2419 1989
is_linear=0
shrinkage=0.0342644


Tree=36
num_leaves=16
num_cat=0
split_feature=10 10 10 10 37 19 61 22 59 10 61 4 19 59 11
split_gain=819.279 293.49 121.235 78.7214 56.1296 43.0625 34.1131 33.8336 28.9244 23.4558 22.5128 14.8932 11.5074 11.3968 9.81484
threshold=-56.410912750032359 127.93862521861151 -249.70663462693537 325.9959914581612 1.5000000000000002 0.45846977969200364 -0.030243314395183647 1505.7009075183948 0.50558722481222207 -427.80908388779829 -0.057043319034383595 1.0000000180025095e-35 4.1441159996883909 0.52297163174291661 1776.5790422409257
decision_type=2 2 2 2 2 2 2 2 2 2 2 2 2 2 2
left_child=2 4 9 8 7 13 -7 -2 -3 14 -6 -5 -11 -4 -1
right_child=1 3 5 11 10 6 -8 -9 -10 12 -12 -13 -14 -15 -16
leaf_value=-0.028967491787741606 -0.0096487403178415788 0.0062777866005574584 -0.026348332612706769 0.036460250981263709 -0.0047360904770772701 -0.010434789453522988 -0.0041770509515234987 0.00042264584652591222 0.013676397306334147 -0.024461803432772877 0.0075503345480664279 0.022168659209294811 -0.015224610268124543 0.0055752462913206203 0.020370232766810971
leaf_weight=269.95921225845814 433.26922504603863 910.22349964082241 167.01867724955082 103.64200316369534 193.03746476769447 1750.6548867076635 2477.1177866011858 4063.0056776106358 1983.8257966339588 196.33905246853828 1802.6003334969282 568.69226804375648 917.93313278257847 13.774759873747824 4.612098053097724
leaf_count=1600 1748 4002 713 624 785 7507 10415 16440 8957 948 7400 3142 4472 59 26
internal_value=8.27377e-07 0.00591455 -0.0102578 0.0138116 0.0015749 -0.00747346 -0.00677032 -0.000545934 0.0113524 -0.0190898 0.00635755 0.0243846 -0.01686 -0.0238684 -0.0281073
internal_weight=15855.7 10058.3 5797.41 3566.38 6491.91 4408.57 4227.77 4496.27 2894.05 1388.84 1995.64 672.334 1114.27 180.793 274.571
internal_count=68838 43098 25740 16725 26373 18694 17922 18188 12959 7046 8185 3766 5420 772 1626
is_linear=0
shrinkage=0.0342644


Tree=37
num_leaves=16
num_cat=0
split_feature=13 14 13 37 26 23 5 64 5 26 43 45 5 26 14
split_gain=725.67 265.105 106.557 98.9921 56.3125 52.4333 50.283 44.2416 34.3387 34.2492 31.0597 15.9903 15.4759 14.0637 4.27812
threshold=57.855071074622636 0.30312100696844585 265.03882586192429 1.0000000180025095e-35 0.30000000000000254 1532.0553901848773 4.0000000000000009 9.2624822485060925 4.0000000000000009 -4.0999999999999988 0.19999999999999998 0.4333333333333334 4.0000000000000009 1.9000000000000004 0.85781153986953962
decision_type=2 2 2 2 2 2 2 2 2 2 2 2 2 2 2
left_child=1 6 4 7 8 -5 9 -3 -2 -1 -6 -8 13 -4 -14
right_child=2 3 12 5 10 -7 11 -9 -10 -11 -12 -13 14 -15 -16
leaf_value=-0.0048717920939321327 0.010444168159985931 -0.0065347049801530227 0.022980163568752175 0.012436746506303433 0.0015694402907847817 0.00082491912475032901 -0.014182986952621431 0.0011238568113414132 0.0224524195636489 -0.01464217539415897 0.010015516250717492 -0.027582103449913038 0.022364954072261582 0.012883861831749577 0.033728605438552876
leaf_weight=575.92620666325092 1700.5954156666994 3951.2168581783772 412.69472382962704 571.05716307461262 1451.044531494379 2286.9897973239422 148.3555496186018 1139.028332144022 336.72153648734093 1598.7405864596367 791.82982762157917 381.99099080264568 64.054003924131393 275.42559005320072 129.90762916207314
leaf_count=2666 7360 16258 2208 2362 6087 9320 702 4655 1510 7638 3520 1954 346 1442 810
internal_value=8.03384e-07 -0.0051078 0.010545 -0.0019533 0.00830694 0.00314806 -0.0143737 -0.00481928 0.0124331 -0.0120586 0.00455511 -0.0238502 0.0213953 0.0189516 0.0300203
internal_weight=15815.6 10653.3 5162.27 7948.29 4280.19 2858.05 2705.01 5090.25 2037.32 2174.67 2242.87 530.347 882.082 688.12 193.962
internal_count=68838 45555 23283 32595 18477 11682 12960 20913 8870 10304 9607 2656 4806 3650 1156
is_linear=0
shrinkage=0.0342644


Tree=38
num_leaves=16
num_cat=0
split_feature=10 10 10 10 37 64 19 5 61 63 10 19 11 54 4
split_gain=727.435 262.894 111.748 73.0382 51.4521 40.745 40.5641 33.8222 31.3321 24.3184 22.9429 11.0902 10.6506 9.58629 9.39074
threshold=-56.410912750032359 130.75572893680774 -249.70663462693537 343.55439132842531 2.5000000000000004 14.527438153198988 0.45846977969200364 4.0000000000000009 -0.030243314395183647 208.4410251195583 -427.80908388779829 4.1441159996883909 1498.2067274990711 0.049308604214602057 1.0000000180025095e-35
decision_type=2 2 2 2 2 2 2 2 2 2 2 2 2 2 2
left_child=2 4 10 7 5 -2 12 -3 -8 -6 13 -12 -4 -1 -5
right_child=1 3 6 14 9 -7 8 -9 -10 -11 11 -13 -14 -15 -16
leaf_value=-0.028800190363862912 -0.0014048156433815696 0.0092509705387310223 -0.0097973459682802258 0.035244258570651991 0.0095973885719324858 0.0065182631390000318 -0.0098734140818940719 0.018705971165854905 -0.0038647489515107845 -0.0028331569105201084 -0.023569447353565764 -0.014435021953525527 -0.028421929804008261 8.6206067889251168e-05 0.022674338122325825
leaf_weight=254.05341792106628 4286.9375244528055 2364.1072867512703 52.625554874539375 85.767599806189537 1115.3735540360212 926.76900470256805 1742.3971084803343 550.18288561701775 2471.3071711212397 220.25321152806282 193.33747626841068 906.91566786170006 126.80468748509884 13.616422459483145 467.2502308934927
leaf_count=1547 17374 10669 227 546 4605 3763 7507 2558 10415 901 948 4472 545 79 2682
internal_value=9.46536e-07 0.00558116 -0.00969977 0.0132106 0.00154071 1.90803e-06 -0.00703367 0.0110389 -0.00635142 0.00754106 -0.0182557 -0.016048 -0.0230075 -0.0272985 0.0246394
internal_weight=15777.7 10016.6 5761.06 3467.31 6549.33 5213.71 4393.13 2914.29 4213.7 1335.63 1367.92 1100.25 179.43 267.67 553.018
internal_count=68838 43098 25740 16455 26643 21137 18694 13227 17922 5506 7046 5420 772 1626 3228
is_linear=0
shrinkage=0.0342644


Tree=39
num_leaves=16
num_cat=0
split_feature=13 13 14 13 33 26 26 8 41 26 7 15 26 4 26
split_gain=647.73 238.617 98.7087 58.2857 57.5924 53.201 47.9414 42.8349 35.4972 31.5638 31.5594 28.2612 19.0872 15.079 8.74862
threshold=-39.412115728962128 114.64296470466208 0.22351588732037753 278.65073316671482 -6.4999999999999991 -0.29999999999999888 -3.7999999999999985 1524.2003087835424 1.0000000180025095e-35 2.3000000000000029 1500.0019727249344 0.8817491839678272 -8.4999999999999964 1.0000000180025095e-35 -10.499999999999996
decision_type=2 2 2 2 2 2 2 2 2 2 2 2 2 2 2
left_child=2 4 11 9 8 7 -6 -4 -2 -3 -7 12 -1 -5 -13
right_child=1 3 5 13 6 10 -8 -9 -10 -11 -12 14 -14 -15 -16
leaf_value=0.0010687274174775853 -0.012012201357976303 0.013413510317611663 -0.0086859452595161313 0.033526976262450103 0.0058749561696441943 0.0038980404322855175 -0.0024495694668496444 0.00092751039243002022 0.007680586484115349 0.0056008031718355125 -0.011539799939945861 -0.0046542423450917575 -0.015098768716207857 0.019263140564726434 -0.025658120561436112
leaf_weight=92.822423800826073 113.86275854706764 1568.8521722555161 885.34223328530788 102.70957180857658 1055.7872903943062 168.02690382301807 3518.3937433958054 1408.547672867775 1824.6799644380808 998.19496212899685 1953.955439209938 25.879429340362549 984.98312321305275 656.2219479829073 380.95254331827164
leaf_count=418 459 7118 3817 629 4321 686 14355 5894 7554 4389 8413 142 4723 3643 2277
internal_value=8.83942e-07 0.00538443 -0.00897436 0.0128518 0.00156961 -0.00640151 -0.000526264 -0.00277911 0.00651946 0.0103789 -0.0103133 -0.0166212 -0.0136984 0.0212049 -0.0243432
internal_weight=15739.2 9838.7 5900.51 3325.98 6512.72 4415.87 4574.18 2293.89 1938.54 2567.05 2121.98 1484.64 1077.81 758.932 406.832
internal_count=68838 42468 26370 15779 26689 18810 18676 9711 8013 11507 9099 7560 5141 4272 2419
is_linear=0
shrinkage=0.0342644


Tree=40
num_leaves=16
num_cat=0
split_feature=10 10 10 33 25 5 64 37 5 61 25 51 10 62 19
split_gain=646.484 225.838 107.71 74.7785 42.8461 40.3696 37.0056 35.7473 27.2821 25.4921 25.3187 19.0374 16.9914 12.9375 2.7425
threshold=67.698479601044724 -185.97031859017224 275.61274024630194 2.5000000000000004 26.650000000000002 4.0000000000000009 26.301119054757837 2.5000000000000004 4.0000000000000009 0.0059981540302793011 24.450000000000003 0.076922282796282812 422.41370497797851 254.51326740919333 15.599690130840274
decision_type=2 2 2 2 2 2 2 2 2 2 2 2 2 2 2
left_child=1 5 7 4 -3 9 -5 10 12 -1 -2 -9 -4 -7 -10
right_child=2 3 8 6 -6 13 -8 11 14 -11 -12 -13 -14 -15 -16
leaf_value=-0.013920618518191269 0.0004521323941338054 -0.0028106917943263522 0.013731427220651468 -0.0081365915462431014 0.0032034277941071433 -0.023382670962889165 0.009806271794550148 0.014366962543534889 0.030400816363177711 -0.0034313599574716256 0.0074121434155938852 0.0059514338626819778 0.025894686247162329 0.028445333972520685 0.0095727370436652966
leaf_weight=1447.4226573556662 921.82469201087952 3015.0208354741335 583.84826156497002 2396.9443933367729 2581.5356654971838 515.14125081896782 142.57159249484539 1008.5187978297472 241.64609456062317 337.81559884548187 1851.7463119477034 465.40040355920792 178.61334110796452 5.5677343010902396 8.9190662056207639
leaf_count=7143 3917 12361 3051 9910 10588 2639 582 4485 1472 1573 7910 2048 1082 27 50
internal_value=8.71962e-07 -0.00493326 0.00979666 -0.00224934 -3.50057e-05 -0.0143992 -0.00712586 0.00739901 0.0198412 -0.0119406 0.00510202 0.0117155 0.0165921 -0.0228119 0.0296938
internal_weight=15702.5 10442 5260.52 8136.07 5596.56 2305.95 2539.52 4247.49 1013.03 1785.24 2773.57 1473.92 762.462 520.709 250.565
internal_count=68838 44823 24015 33441 22949 11382 10492 18360 5655 8716 11827 6533 4133 2666 1522
is_linear=0
shrinkage=0.0342644


Tree=41
num_leaves=16
num_cat=0
split_feature=15 15 15 22 20 15 26 16 20 1 15 26 21 4 26
split_gain=576.422 213.321 88.7294 52.7937 60.7957 52.6312 48.2654 51.8629 35.7751 31.396 26.9253 26.4819 23.1471 15.6231 7.29208
threshold=0.55652551174641418 0.33942418937879043 0.78134522390584416 1524.6108225707646 1.0000000180025095e-35 0.17981908689157228 -0.29999999999999888 -1.8958681775384318 1.0000000180025095e-35 843.50000000000011 0.90641802190525633 -10.799999999999995 -8.1473685913408698 1.0000000180025095e-35 -3.9999999999999978
decision_type=2 2 2 2 2 2 2 2 2 2 2 2 2 2 2
left_child=1 5 6 12 -5 13 7 -2 -8 -7 11 -4 -3 -1 -12
right_child=2 3 10 4 -6 9 8 -9 -10 -11 14 -13 -14 -15 -16
leaf_value=0.031363422461836689 -0.0013808836919491066 -0.017964633060274227 0.011370466279643469 0.020185805223750092 0.0020499677146948265 0.012091291194165341 0.0213983723196083 -0.022649508416828543 -0.010467283877102294 0.0033858849185583653 -0.017251507545693299 -0.014841607126141384 -0.0035470359853547015 0.017682812040095773 -0.030062252377368079
leaf_weight=115.28705780208111 2175.9980535954237 156.94159851968288 46.822172045707703 226.34148804843426 5352.2433069646358 1726.7658660560846 42.02011950314045 143.59856401383877 2102.6327941566706 681.3675002604723 79.737330511212349 1097.3198234140873 800.91438756883144 743.04457327723503 176.31996063888073
leaf_count=713 9223 638 214 960 21976 7770 170 627 9079 3030 488 5435 3244 4147 1124
internal_value=1.02142e-06 0.00508494 -0.00849569 0.00151029 0.00278734 0.0122354 -0.00613217 -0.00270127 -0.00983892 0.00963173 -0.0160251 -0.0137614 -0.00591831 0.0195304 -0.0261066
internal_weight=15667.4 9802.91 5864.45 6536.44 5578.58 3266.46 4464.25 2319.6 2144.65 2408.13 1400.2 1144.14 957.856 858.332 256.057
internal_count=68838 42478 26360 26818 22936 15660 19099 9850 9249 10800 7261 5649 3882 4860 1612
is_linear=0
shrinkage=0.0342644


Tree=42
num_leaves=16
num_cat=0
split_feature=10 10 10 10 33 26 33 26 5 10 16 26 23 33 10
split_gain=579.758 211.889 93.2377 55.6164 47.8258 46.482 43.0538 30.4016 27.4978 21.7452 15.434 13.3794 13.2899 12.2816 8.56736
threshold=-56.410912750032359 154.6860907174503 -249.70663462693537 343.55439132842531 105.50000000000001 -3.7999999999999985 -25.499999999999996 0.49999999999999828 4.0000000000000009 -427.80908388779829 -1.0000000180025095e-35 -4.0999999999999988 1500.0169165105606 -72.499999999999986 442.49666082080211
decision_type=2 2 2 2 2 2 2 2 2 2 2 2 2 2 2
left_child=2 4 9 8 5 -2 10 -8 -3 13 -4 -11 -6 -1 -5
right_child=1 3 6 14 12 -7 7 -9 -10 11 -12 -13 -14 -15 -16
leaf_value=0.029100892837526041 0.0074838171474352162 0.0087681546386383421 0.0099451556653621428 0.019373568198120923 0.002845686505248109 0.000832807379667683 -0.0044566167956004397 -0.010381713798996026 0.01824886259090339 -0.0073839543725486342 -0.025769077690384966 -0.016598858264209048 -0.01526101346824558 -0.026764624148834595 0.028494239810537506
leaf_weight=4.5596604049205771 1620.5484249293804 1863.3969074040651 228.00669950246811 321.01284810900688 58.569072887301445 5183.9925424158573 2268.1047232747078 1854.22246286273 448.0604236125946 242.92381440103054 15.031645983457564 830.22560483217239 237.37973429262638 249.65738347172737 206.52127961069345
leaf_count=27 6638 8637 953 1883 235 21236 9699 7979 2160 1209 63 4211 964 1599 1345
internal_value=9.63677e-07 0.00499536 -0.00871771 0.0129077 0.00183055 0.00241806 -0.00629649 -0.00712382 0.0106097 -0.016674 0.0077008 -0.014521 -0.0116485 -0.0257287 0.0229605
internal_weight=15632.2 9939.48 5692.73 2838.99 7100.49 6804.54 4365.37 4122.33 2311.46 1327.37 243.038 1073.15 295.949 254.217 527.534
internal_count=68838 43098 25740 14025 29073 27874 18694 17678 10797 7046 1016 5420 1199 1626 3228
is_linear=0
shrinkage=0.0342644


Tree=43
num_leaves=16
num_cat=0
split_feature=10 10 10 10 64 16 5 61 34 10 64 53 5 8 10
split_gain=542.725 210.878 81.1319 69.4221 43.7258 31.0014 29.4943 29.3578 29.1285 21.1516 12.8701 12.3909 10.7783 9.66294 8.40222
threshold=-65.914234795501315 108.19769600639314 -249.70663462693537 343.55439132842531 17.918522435662656 -1.8958681775384318 4.0000000000000009 -0.017497588536647447 1.0000000180025095e-35 -427.80908388779829 -10.112234061397615 0.019576993025997805 4.0000000000000009 1825.4102892745404 442.49666082080211
decision_type=2 2 2 2 2 2 2 2 2 2 2 2 2 2 2
left_child=2 4 9 6 8 7 -3 -4 -2 13 -7 -6 -11 -1 -5
right_child=1 3 5 14 11 10 -8 -9 -10 12 -12 -13 -14 -15 -16
leaf_value=-0.02617605004555662 0.0005307545362494507 0.0075384878322360621 -0.0086458328097508523 0.018916544597290322 -0.0087080242266533263 -0.027701930578366705 0.015778877144102282 -0.0026267290641021814 -0.0070448628329904906 -0.012187692524951759 -0.010532953488226483 0.008951219986856853 -0.020406390111482587 0.023489154682255133 0.02801646974259768
leaf_weight=245.74256657063961 4753.651211977005 2817.5993292182684 1965.3623624891043 317.56396706402302 49.028578668832779 106.29457467794418 626.06574614346027 1854.2133878171444 681.13181710243225 817.05366840958595 103.29458184540272 804.00863228738308 249.1733528226614 4.5037526190280905 202.90910536795855
leaf_count=1598 19332 12723 8566 1883 200 464 2934 7870 2754 4119 444 3277 1301 28 1345
internal_value=9.54032e-07 0.00461681 -0.00884981 0.0108061 0.000713417 -0.00643338 0.00903911 -0.00572612 -0.000417098 -0.0162389 -0.0192814 0.00792614 -0.0141165 -0.0252478 0.0224808
internal_weight=15597.6 10252 5345.64 3964.14 6287.82 4029.16 3443.67 3819.58 5434.78 1316.47 209.589 853.037 1066.23 250.246 520.473
internal_count=68838 44448 24390 18885 25563 17344 15657 16436 22086 7046 908 3477 5420 1626 3228
is_linear=0
shrinkage=0.0342644


Tree=44
num_leaves=16
num_cat=0
split_feature=13 13 13 13 20 33 0 33 25 55 58 13 33 54 22
split_gain=490.107 192.564 73.2981 56.6592 56.2296 56.1857 41.4472 35.6713 27.466 23.0508 18.9825 13.3045 14.2625 7.82969 7.43181
threshold=65.095309510226016 -82.216387651647196 265.03882586192429 -348.58065210891419 1.0000000180025095e-35 42.500000000000007 824.50000000000011 -1.0000000180025095e-35 25.350000000000005 1.0000000180025095e-35 -0.021694542084256498 411.41162940741987 -1.0000000180025095e-35 0.026684759125046201 1886.8725164997022
decision_type=2 2 2 2 2 2 2 2 2 2 2 2 2 2 2
left_child=1 3 7 13 9 -6 -5 10 -9 -3 -2 12 -4 -1 -13
right_child=2 4 11 6 5 -7 -8 8 -10 -11 -12 14 -14 -15 -16
leaf_value=-0.027858323796114502 0.0029644607311410556 0.0045871685680721136 0.023210567234603359 -0.010822686684381928 -0.00010058625560209896 -0.011292852436610126 -0.0030980251914893508 0.00064995816779399166 0.0078279632236886981 0.021244331369947252 0.013482779890627865 -0.021274828683279075 0.012163702689551529 -0.017820589962607526 0.027070508184373808
leaf_weight=169.88004319369793 247.22913026809692 217.24463863670826 211.03784716129303 2687.1615457683802 5551.4172310233116 581.97548539936543 1175.8653920143843 1087.6452244669199 1482.9872232377529 179.50922831892967 1142.5954836905003 3.6045366972684851 411.21379701048136 215.74347323179245 197.64178617298603
leaf_count=1091 1083 885 1206 12205 22688 2397 5280 4701 6474 743 5147 23 2265 1338 1312
internal_value=8.64923e-07 -0.0040495 0.0091286 -0.00972739 -0.000354027 -0.00116399 -0.00847361 0.00719104 0.00479427 0.0121453 0.0116179 0.0184365 0.0159241 -0.0222649 0.0261618
internal_weight=15562.8 10778.8 4783.96 4248.65 6530.15 6133.39 3863.03 3960.46 2570.63 396.754 1389.82 823.498 622.252 385.624 201.246
internal_count=68838 46627 22211 19914 26713 25085 17485 17405 11175 1628 6230 4806 3471 2429 1335
is_linear=0
shrinkage=0.0342644


Tree=45
num_leaves=16
num_cat=0
split_feature=10 10 10 33 7 10 59 20 33 4 20 10 45 33 10
split_gain=482.519 174.144 88.1667 64.0651 33.8102 33.4908 33.0438 30.5617 29.7365 22.5219 16.2598 16.197 15.6365 9.07316 4.34871
threshold=67.698479601044724 -185.97031859017224 275.61274024630194 2.5000000000000004 1508.0300496448826 -392.99675165928005 0.50521183877677378 1.0000000180025095e-35 -6.4999999999999991 1.0000000180025095e-35 3.810479988305564 442.49666082080211 0.31666666666666671 -72.499999999999986 288.16400608629141
decision_type=2 2 2 2 2 2 2 2 2 2 2 2 2 2 2
left_child=1 5 6 4 -3 13 10 -5 -8 14 -2 -11 -7 -1 -4
right_child=2 3 9 7 -6 12 8 -9 -10 11 -12 -13 -14 -15 -16
leaf_value=0.021916768750279664 0.010080291713862538 0.004269986850270093 0.012904554820020698 0.011338467211256998 -0.0015936268882224853 -0.0025409314723678256 0.014148852415679581 -0.0072536331886879765 0.0062747639912978546 0.013165326910350659 0.00090694788937881415 0.025214389916123178 -0.01210950754762535 -0.023473290226405954 0.032360069737785747
leaf_weight=5.0564693063497534 274.82448327541351 1630.7758227586746 16.755317434668541 108.10230326652527 3952.6284912079573 230.35650007426739 826.90026186406612 2420.2498982846737 1789.1075269877911 652.21983310580254 1316.5952080190182 166.81336107850075 1679.389435172081 328.53180553019047 131.6452434360981
leaf_count=30 1184 6615 89 436 16334 1077 3703 10056 7828 3602 5645 1112 8137 2138 852
internal_value=9.11236e-07 -0.00426814 0.0085451 -0.00193015 0.000117447 -0.0127183 0.0063973 -0.0064553 0.008767 0.0178771 0.00249652 0.0156299 -0.0109598 -0.0227594 0.0302215
internal_weight=15530 10355.1 5174.86 8111.76 5583.4 2243.33 4207.43 2528.35 2616.01 967.434 1591.42 819.033 1909.75 333.588 148.401
internal_count=68838 44823 24015 33441 22949 11382 18360 10492 11531 5655 6829 4714 9214 2168 941
is_linear=0
shrinkage=0.0342644


Tree=46
num_leaves=16
num_cat=0
split_feature=10 10 10 10 26 64 19 19 26 26 10 26 59 11 4
split_gain=455.151 178.583 71.1052 53.6912 46.4748 35.0516 34.86 32.6594 44.6649 25.4465 16.3424 16.4044 12.0869 9.96566 9.54018
threshold=-65.914234795501315 135.80367490678239 -271.33364129085868 343.55439132842531 -3.7999999999999985 17.918522435662656 0.45846977969200364 1.0000000180025095e-35 0.59999999999999976 2.7999999999999994 -427.80908388779829 -4.0000000000000009 0.52338584708697011 1776.5790422409257 1.0000000180025095e-35
decision_type=2 2 2 2 2 2 2 2 2 2 2 2 2 2 2
left_child=2 4 10 9 6 -6 -2 12 -9 -3 13 -12 -4 -1 -5
right_child=1 3 7 14 5 -7 -8 8 -10 -11 11 -13 -14 -15 -16
leaf_value=-0.024951649587800065 -0.009866458949753746 0.01132773907882172 -0.023807089642191644 0.032643235385498279 -0.0015521267552588364 0.0063621339149820587 0.0076832765008795923 -0.0023199550967266803 -0.0095435756350347178 0.0042417627909451614 -0.0047810845141569719 -0.016389805432201192 0.012382035706879594 0.026940429464996161 0.019192099832802095
leaf_weight=235.66272079944611 145.18888753652573 1823.4645661264658 151.29907304048538 75.191299811005592 4548.5116480886936 767.78424030542374 1521.2942277044058 2253.0193275213242 1820.1102688908577 890.00916592776775 187.34275269508362 635.2177532762289 11.347211003303526 4.267156407237052 426.69485074281693
leaf_count=1600 590 8589 673 546 18571 3153 6219 9746 7959 4098 969 3367 50 26 2682
internal_value=1.04002e-06 0.00423424 -0.00814542 0.0109165 0.00115603 -0.000407521 0.00614912 -0.0061541 -0.00555 0.00900674 -0.016076 -0.0137563 -0.0212293 -0.0239928 0.0212245
internal_weight=15496.4 10198.1 5298.27 3215.36 6982.78 5316.3 1666.48 4235.78 4073.13 2713.47 1062.49 822.561 162.646 239.93 501.886
internal_count=68838 44448 24390 15915 28533 21724 6809 18428 17705 12687 5962 4336 723 1626 3228
is_linear=0
shrinkage=0.0342644


Tree=47
num_leaves=16
num_cat=0
split_feature=13 14 14 64 26 5 43 7 26 1 5 5 26 39 14
split_gain=413.679 165.052 64.4294 53.4157 47.1022 45.4463 39.5882 37.8386 28.4669 23.6994 21.9243 20.9298 15.6248 14.0094 3.29938
threshold=65.095309510226016 0.30312100696844585 0.80976369476994414 10.11184846685491 0.30000000000000254 4.0000000000000009 -0.22361111111111101 1506.0021383270168 -4.0999999999999988 952.50000000000011 4.0000000000000009 4.0000000000000009 1.9000000000000004 0.36666666666666675 0.89532683833220916
decision_type=2 2 2 2 2 2 2 2 2 2 2 2 2 2 2
left_child=1 5 4 6 10 8 -3 -5 -1 -6 -2 12 -4 -7 -13
right_child=2 3 11 7 9 13 -8 -9 -10 -11 -12 14 -14 -15 -16
leaf_value=-0.0024161627362648606 0.0088146460245197445 -0.0086922534224574653 0.01805206594674804 0.010118641395674819 0.0052447680874924182 0 -0.0015795346809393354 1.6496066061527379e-05 -0.011485700270110061 -0.0029320300619624161 0.019081458907042437 0.023243576519850179 0.0077501269810001869 -0.022236435768093785 0.033276911263374967
leaf_weight=557.80086560547352 1512.716506421566 1119.2100959271193 434.01405574381351 690.16886878013611 1426.1922301501036 35.697064936161041 5158.8424072861671 1183.4496100842953 1522.0918656587601 586.15220528841019 293.64833632111549 126.12311799824238 293.53310786187649 459.37306196987629 65.35986190289259
leaf_count=2666 6691 4773 2496 2858 6217 170 21162 4874 7638 2536 1367 770 1629 2486 505
internal_value=9.81236e-07 -0.00372291 0.00843401 -0.00133289 0.00647008 -0.0112858 -0.00284892 0.00374234 -0.00905751 0.00285876 0.0104884 0.016585 0.0139075 -0.0206297 0.0267133
internal_weight=15464.4 10726.6 4737.74 8151.67 3818.71 2574.96 6278.05 1873.62 2079.89 2012.34 1806.36 919.03 727.547 495.07 191.483
internal_count=68838 46627 22211 33667 16811 12960 25935 7732 10304 8753 8058 5400 4125 2656 1275
is_linear=0
shrinkage=0.0342644


Tree=48
num_leaves=16
num_cat=0
split_feature=13 13 43 37 13 26 20 15 58 14 37 16 26 60 54
split_gain=388.906 148.344 69.6853 47.1024 40.2735 37.1194 31.0493 30.952 29.4671 29.3038 27.4693 21.5256 12.3919 10.3357 6.27364
threshold=-39.412115728962128 114.64296470466208 -0.24722222222222218 1.0000000180025095e-35 278.65073316671482 -10.499999999999996 0.45652303788347953 0.8817491839678272 -0.081980592117271933 0.30312100696844585 2.5000000000000004 -1.8958681775384318 1.9000000000000004 0.57516101963976773 0.026684759125046201
decision_type=2 2 2 2 2 2 2 2 2 2 2 2 2 2 2
left_child=2 3 7 8 10 13 -5 11 -2 -7 -3 -1 -6 -4 -9
right_child=1 4 5 6 12 9 -8 14 -10 -11 -12 -13 -14 -15 -16
leaf_value=-0.0094918643810370362 -0.010808766830611183 0.0054693136144998164 0.013949101276659824 0.016817290527542095 0.02142671409745418 -0.009196484129410586 0.0034901245330661683 -0.030086792300274865 -0.00034183635362102698 -0.0028713088264395335 0.012937868684586722 -0.023248294965066162 0.012031676636902326 -0.015565767356014124 -0.01882717314472707
leaf_weight=1456.0214705020189 349.26135249435902 1586.4082028567791 153.51874735951424 223.42310392856598 406.87637516856194 1350.3495159000158 2590.2454681098461 108.99360983073711 3317.1405277699232 2384.7449124157429 916.02946055680513 148.22106230258942 286.88898751139641 15.050133794546126 140.24311420321465
leaf_count=6909 1428 7130 651 960 2535 6448 10800 770 13501 9886 4377 693 1737 69 944
internal_value=1.04184e-06 0.0041971 -0.00704996 0.00121604 0.0102383 -0.00444896 0.00455145 -0.0125233 -0.00134127 -0.00516036 0.00820666 -0.0107682 0.0175541 0.0112628 -0.0237857
internal_weight=15433.4 9676.27 5757.14 6480.07 3196.2 3903.66 2813.67 1853.48 3666.4 3735.09 2502.44 1604.24 693.765 168.569 249.237
internal_count=68838 42468 26370 26689 15779 17054 11760 9316 14929 16334 11507 7602 4272 720 1714
is_linear=0
shrinkage=0.0342644


Tree=49
num_leaves=16
num_cat=0
split_feature=10 10 10 33 26 5 64 59 26 5 15 37 10 26 46
split_gain=381.548 140.735 74.7961 57.8041 39.4212 37.0183 31.0025 29.5897 31.151 26.7934 20.0726 16.6711 14.0874 13.7235 3.30633
